MarmID	PC1	PC2	PC3	PC4	PC5	PC6	PC7	PC8	PC9	PC10	PC11	PC12	PC13	PC14	PC15	PC16	PC17	PC18	PC19	PC20	PC21	PC22	PC23	PC24	PC25	PC26	PC27	PC28	PC29	PC30	PC31	PC32	PC33	PC34	PC35	PC36	PC37	PC38	PC39	PC40	PC41	PC42	PC43	PC44	PC45	PC46	PC47	PC48	PC49	PC50	PC51	PC52	PC53	PC54	PC55	PC56	PC57	PC58	PC59	PC60
CJ192	0.0845673	-0.0707135	-0.00515016	0.0799213	-0.0163629	0.0525923	0.0100475	-0.0787552	-0.00298943	0.0277944	0.0268576	-0.079677	0.00236285	-0.0951156	0.0854147	-0.0487145	0.0373395	-0.0477181	0.072385	-0.0106173	0.0307048	-0.0185634	0.099351	-0.0057184	0.0782496	-0.0434611	0.284052	-0.169662	-0.0503077	-0.0301681	-0.108873	0.10066	-0.131652	0.0567235	0.0733483	0.046377	-0.0507531	-0.0812043	-0.0601523	0.0914061	0.0877171	0.0208288	-0.0271857	0.0393965	0.0301036	0.02056	0.00953289	0.11825	-0.0869692	0.0147736	-0.0922043	0.00406418	0.0230981	0.0261664	-0.0244254	-0.212146	-0.0767127	0.028769	0.0957494	0.0650841
CJ129	0.0963553	0.0127728	0.202132	-0.138382	0.0941224	0.0579682	0.0503034	0.0412117	-0.00681312	-0.0214084	-0.188201	0.00710705	0.0161528	0.0670075	-0.0633288	0.0264356	-0.0524808	0.0691013	-0.0749736	0.0631307	-0.0895463	0.00541464	-0.0168102	-0.0477634	-0.0107873	-0.0546775	0.0221535	0.0753107	-0.00979864	0.145705	0.0642895	-0.0536153	0.00624109	-0.092912	0.0296602	-0.0120085	0.00649356	0.127667	-0.068901	0.0300465	0.0599013	-0.0675373	0.0200473	-0.079294	0.0281258	0.11905	0.0858021	0.038404	-0.0780928	0.0295063	-0.0697388	0.0477587	-0.0128032	-0.00686747	0.0190351	-0.0598926	-0.0440888	-0.0666375	-0.0657532	-0.0319503
CJ193	0.120253	-0.0538347	0.226927	0.0306697	-0.0321657	-0.0129847	-0.0283706	0.0301481	-0.072494	0.08647	0.0831304	-0.0398462	-0.026619	0.108992	-0.0816998	0.153903	0.0615136	-0.0955263	-0.0227196	0.000445778	0.0112884	-0.0205502	0.112542	0.00959722	0.00356829	0.106186	0.0629323	-0.156077	-0.0217497	-0.0865997	-0.10588	0.128895	-0.0372333	0.127114	-0.0443337	0.0203429	-0.00812251	-0.100731	0.0380193	0.0333489	-0.00721402	0.122599	-0.117961	0.0548679	-0.0503799	-0.0220275	-0.110814	0.0330138	-0.0171805	0.0512441	-0.0315418	0.0243768	-0.0010414	-0.0147614	-0.022846	0.17684	0.110529	0.0620541	0.0442829	-0.0146594
CJ126	0.102285	-0.0153939	-0.0894397	-0.202505	0.149276	0.0523777	0.0597809	0.142313	0.0129914	-0.021806	0.148331	-0.0393786	-0.041134	0.0723856	0.127711	-0.0504028	0.0299915	-0.0147266	0.0586611	-0.0246417	0.0154802	0.00127115	0.0228246	0.00536289	-0.0171844	0.0384618	-0.0435299	-0.00930632	0.0179251	-0.0103666	0.0214511	-0.033985	0.00375116	-0.0126992	0.0008444	-0.0340165	0.0112592	-0.0470607	0.014748	-0.0290694	-0.0117563	0.0179601	-0.000995794	0.0906434	-0.0179131	-0.023919	0.00342883	0.0110952	0.0191275	-0.0211536	-0.0613251	-0.0211164	-0.0123893	-0.036294	0.011335	-0.0384733	-0.0762526	0.0432344	0.059634	-0.00246253
CJ119	0.075573	-0.0464715	-0.0616757	-0.000968888	0.0141257	-0.042743	-0.00782557	0.150512	-0.0477914	0.0522698	0.0855445	0.0955346	0.0679988	-0.405941	-0.103242	0.17874	-0.0254783	0.0588083	-0.0986246	0.141041	-0.148186	0.0010173	0.0309478	-0.0259295	0.0472908	-0.0445471	0.026392	0.0754789	-0.0179577	-0.00394019	-0.0157897	-0.00834686	0.00177302	0.0208939	0.00112641	0.0312877	0.00838889	-0.00545792	0.0167698	0.00130768	-0.0157751	0.01377	-0.0241227	0.0261819	-0.0333563	-0.00769072	-0.00242377	-0.00601866	-0.00994831	0.0133081	-0.0302049	-0.00615488	-0.0239967	-0.0290803	0.00507141	0.0206941	-0.0216349	-0.0125037	0.00669207	-0.0227555
CJ120	0.0723315	-0.0443386	-0.053569	-0.0204821	0.0219325	-0.0359922	0.0125114	0.143428	-0.034367	0.0414947	0.0913713	0.0941033	0.0538985	-0.386139	-0.0752971	0.146326	-0.0203205	0.051751	-0.0646053	0.116605	-0.112035	0.0083594	0.00359957	-0.0321159	0.0401977	-0.064255	0.0528592	0.0588637	-0.0160015	0.0491417	-0.0028403	-0.0223964	0.0205749	0.00304439	-0.0399981	-0.000521894	0.0283594	0.0248658	0.0042006	-0.00635222	0.0286641	0.0154769	-0.0385278	0.00878042	0.00190947	0.0415371	-0.00427483	0.0439797	-0.0241469	0.00530839	-0.0541276	-0.00253296	-0.0133892	-0.0103866	0.01274	-0.00648562	-0.0402187	-0.0189799	0.00598431	0.00200609
CJ132	0.00953811	0.130141	-0.0743416	-0.109696	0.143183	0.0671508	0.0737797	-0.213424	-0.0852163	0.0590702	0.0131279	0.0356815	-0.00445304	0.0131231	-0.0178027	0.0746939	-0.0147291	-0.0637399	-0.0785448	0.0204198	-0.0164837	0.00945676	-0.0744457	-0.00818939	-0.0346114	-0.0774737	0.0517748	-0.0521864	-0.00677882	-0.0893227	-0.0481892	0.0527926	0.0344644	0.0171127	-0.0910527	-0.057909	0.0072215	0.140004	-0.0360861	0.0324308	0.0116367	0.000106591	0.0278489	0.00939815	-3.83897e-05	-0.0347944	0.0331854	-0.051135	0.0517796	0.0119595	0.0772251	-0.00466039	0.0267468	0.0546574	-0.0486622	-0.00176995	0.0313796	0.0213336	0.0480906	-0.00324473
CJ133	-0.022764	0.117855	-0.0531748	-0.0899424	0.111891	0.02716	0.0906501	-0.228712	-0.0839999	0.0428943	0.030909	0.0827126	0.0261574	-0.0126307	0.000840351	0.0570375	0.0110033	-0.0657339	-0.0957705	-0.00847214	0.00348588	0.00444579	-0.0217908	0.029099	-0.0465188	0.010888	-0.0202798	-0.0915719	-0.0170208	-0.0258183	-0.0717184	0.125778	0.0289153	0.0364763	-0.0919604	-0.0332363	-0.0348047	0.0783352	0.014188	0.0804776	-0.0281517	0.0256244	0.0701547	-0.0434919	-0.0511548	-0.104949	-0.0315307	-0.0431798	-0.0130925	-0.00449586	0.0404605	-0.104565	-0.0595195	-0.0150911	-0.00179529	0.0114601	-0.0347868	0.0665963	0.07428	-0.0187812
CJ158	0.0219576	0.192508	-0.0514911	0.10517	-0.107407	-0.0194029	-0.0446198	0.116887	0.015919	0.0427755	-0.0373337	-0.0456527	0.00070789	0.027464	-0.00932128	-0.0131543	0.0185679	0.0259437	0.0486013	-0.0029387	-0.0120404	-0.000610948	0.0526891	0.038043	0.00128464	0.10129	-0.102418	-0.0306682	0.0395573	0.0633835	0.113929	-0.066885	-0.031216	-0.0456742	0.110876	0.088771	-0.047	-0.110353	0.117943	-0.0335846	-0.128021	0.0411237	0.0788051	-0.120158	0.00158852	0.00989904	-0.0804888	0.13139	-0.199447	0.0350048	-0.123556	-0.0791183	-0.175801	-0.0605009	0.0534753	-0.00536029	-0.0518595	-0.0384251	0.021271	-0.0318682
CJ278	-0.0669767	0.0610538	0.0847663	-0.00693908	-0.00121668	-0.0874292	-0.00775495	-0.114244	0.0528856	-0.131612	0.10656	0.102126	0.053478	-0.149847	0.097981	-0.0841651	0.00367204	0.000594689	0.0576598	-0.0999214	0.126973	0.0123185	-0.0974889	0.0100599	-0.0399093	0.0127721	-0.125111	0.0668616	-0.00628325	0.112486	-0.0387061	0.0732204	0.0512004	0.140401	-0.0682738	0.0228394	-0.0820562	-0.0933784	-0.0277762	0.198411	0.139194	0.0508916	-0.0575767	0.0222479	-0.144898	0.0261286	0.0256619	0.085776	-0.156424	0.052359	-0.162164	0.017769	-0.0831709	-0.116717	-0.00585033	0.010301	0.0174466	0.11372	-0.0745132	-0.0535372
CJ217	0.0146594	0.258122	-0.00511238	0.0470582	-0.0245111	-0.00697071	-0.0488932	0.0438524	0.0523934	-0.0364016	0.040942	-0.041776	-0.00918996	-0.0514878	0.042604	-0.0733164	-0.0137062	0.0343763	0.0376608	0.00820259	-0.0147968	0.00562965	-0.0255119	0.0128862	0.0167613	-0.05133	0.00950132	-0.00085804	0.00728197	-0.00677408	0.0355361	-0.0303361	0.0390756	-0.0589684	-0.0241475	-0.0139487	-0.000862747	0.014303	-0.0173921	0.0443664	0.0443653	0.00640308	-0.00588641	-0.0298456	-0.0157775	-0.0682066	0.0252735	0.0116922	0.0574819	0.0676034	0.125262	0.0638909	0.0711658	0.114856	-0.0710125	0.0531136	0.0833571	-0.0874194	0.108671	0.0530096
CJ283	0.0216826	0.21634	-0.0573013	0.0321793	-0.0236914	0.0259476	0.00233711	0.0341706	-0.00719963	0.0430763	-0.0528139	-0.032705	0.0041755	0.0116914	0.0215318	-0.0290135	-0.012933	0.0182065	0.00349361	0.0398723	-0.0640109	-0.00572163	0.0640321	0.027405	-0.00148937	0.0776505	-0.00620876	-0.0529067	0.00198678	-0.0277171	0.0120346	0.0403618	0.00804525	-0.0307993	-0.0363661	-0.00878202	0.0245371	0.00424309	-0.00911828	0.00138002	0.0215901	0.0040945	-0.00221255	-0.038365	0.00817676	0.0298126	0.013146	-0.00603222	0.00551504	0.0155373	0.0789077	0.0208028	0.0165548	0.0285351	-0.0169476	0.0648558	0.0593336	0.011748	0.0698267	0.0389762
CJ163	0.00940183	0.221971	-0.0488014	0.0478287	-0.0429936	0.00823352	-0.0473914	0.0682337	0.0404935	-0.00380067	-0.00681696	-0.0712454	-0.0331082	0.00975128	-0.00727148	-0.0441171	-0.0335661	0.0249259	-0.016503	0.0205829	-0.0309015	-0.00755931	0.0510005	0.00214793	0.0240447	0.0270567	-0.0104384	0.00403256	0.00714121	-0.0115896	-0.00642172	-0.0226073	-0.00415256	-0.000795885	-0.0105618	0.0294573	-0.0386718	-0.0750992	0.00619245	0.0339329	-0.00390993	-0.0115006	-0.0203882	-0.0281066	-0.0306542	-0.0651267	-0.0406094	-0.026727	0.0636991	0.0197065	0.0211877	-0.0319099	0.0264134	0.0412038	0.00818822	0.0323211	0.0647651	-0.0277545	-0.0461334	-0.0141045
CJ208	0.0205521	0.214039	-0.0697345	0.0548115	-0.0336829	0.0274041	-0.000871936	0.0741552	0.0214647	0.0414285	-0.0752512	-0.0664285	-0.0111223	0.031683	-0.000603319	-0.0110027	-0.0194929	0.0306603	-0.0283134	0.0434049	-0.0657934	-0.011168	0.0693257	-0.00420649	0.0069565	0.055731	-0.0432735	0.00239208	-0.000567341	0.0538652	-0.0120572	0.0280524	0.00737256	0.0180892	-0.0189189	-0.0199838	0.00131151	-0.0614423	-0.0135319	0.0234386	0.0467676	0.00557789	-0.0276041	-0.0408481	0.0228011	0.0140205	0.0347186	0.0851387	-0.0883185	0.0386009	0.00489617	0.0456541	0.000882476	0.0503015	-0.0332753	0.030565	0.0242429	0.00937727	0.0653384	0.0265068
CJ156	0.0246276	0.196742	-0.0754505	0.0499365	-0.0156171	0.0437532	-0.0284958	0.0528747	0.00361759	0.0417835	-0.0636476	-0.0416196	-0.0353725	0.0201549	-0.0137717	-0.0117535	-0.0502232	0.0161868	-0.0406001	0.0376429	-0.0540942	-0.00924598	0.0996929	-0.0123111	0.0166834	0.0782448	-0.0261876	-0.0135452	0.00336419	-0.0405526	-0.00187358	-0.0167477	-0.0474418	-0.00700344	0.0239363	0.0119122	0.0153339	-0.030829	0.010353	-0.0323369	0.00464877	0.0230554	-0.0299008	0.0848669	-0.0370042	0.068715	0.0135544	0.00919441	-0.0297787	-0.0280185	-0.122637	-0.0180879	-0.0428748	-0.0868599	0.0451143	-0.0136626	-0.0795544	0.00435485	-0.0765857	-0.00442383
CJ251	0.0247698	0.222772	-0.0728124	0.0501815	-0.0095266	0.0539763	-0.00784685	0.0613009	0.0162295	0.0327212	-0.0622532	-0.0265041	-0.0407247	0.0330987	0.000644858	-0.0361106	-0.0425363	0.0138261	-0.0296772	0.0565353	-0.092526	-0.00730975	0.0996181	0.0246448	-0.00607975	0.0994807	-0.0334697	-0.0355389	-0.00316402	-0.0231979	-0.0271527	0.0385148	-0.0474655	-0.00616513	-0.0145675	-0.0326228	0.0269399	-0.0582249	-0.016668	-0.0297308	0.0151774	-0.013396	-0.00548348	0.0447781	0.00406807	0.0148742	-0.00112994	0.0328955	-0.0013479	-0.0295317	-0.0324756	-0.0478438	-0.0231679	-0.0178624	0.0200051	-0.0136759	-0.0445653	-0.0145718	0.0341034	0.0117895
CJ135	-0.0288429	0.118497	-0.0476032	-0.0612861	0.110274	0.0274578	0.10196	-0.232903	-0.0960959	0.0623799	0.0402027	0.0810092	0.0146561	-0.0216299	-0.051358	0.113188	0.0161276	-0.0852044	-0.0330455	-0.0268101	0.0395277	0.0108794	-0.0613056	0.00185105	-0.0275137	-0.00195685	0.0202569	-0.085724	0.0161851	0.071002	0.056495	-0.0339694	0.0136603	-0.0180863	-0.00525235	0.0136949	-0.0108575	0.0809757	0.0265598	-0.0137716	-0.00856578	-0.0478478	0.0533985	-0.085896	0.0454496	-0.0133515	0.079874	-0.000100915	-0.0486808	-0.00957171	0.0650048	0.0341714	-0.0698341	0.0138059	-0.01738	-0.0225586	0.0237864	-0.0880298	-0.0549339	-0.00450532
CJ136	-0.0198845	0.125537	-0.0647933	-0.0807374	0.114311	0.0370244	0.0876555	-0.23514	-0.0817988	0.0548645	0.0533291	0.0818472	0.000578567	-0.0307123	-0.0489287	0.0826546	0.00858581	-0.0688413	-0.0711798	-0.00981284	0.0101622	0.0114551	-0.0525177	0.0209208	-0.0421786	-0.00845984	-0.0243435	-0.0838319	0.0151867	-0.0279878	0.026809	0.00921092	0.0341618	-0.0245086	0.020396	0.0214818	-0.0224977	0.0305691	0.0640701	0.00463731	-0.095057	0.0135381	0.0758864	-0.0505797	-0.034466	-0.0950962	-0.050594	-0.00337766	-0.0404784	0.00158696	-0.0199619	-0.0937722	-0.0630578	-0.019779	0.034262	-0.0554705	-0.0493628	-0.0381761	0.0560623	-0.0536494
CJ134	-0.0232023	0.116284	-0.064871	-0.0677738	0.116793	0.0323269	0.0957784	-0.271263	-0.100635	0.0754635	0.0516547	0.089821	0.00888614	-0.0319933	-0.0686794	0.111374	0.0184204	-0.084875	-0.0260547	-0.031994	0.0490863	0.0131155	-0.0555934	0.0259448	-0.0273532	-0.00022385	-0.00276982	-0.0621953	0.0187974	-0.00614323	0.0719669	-0.0197069	-0.00415961	-0.0710979	0.0385329	0.0328038	-0.000489297	0.0144037	0.0378043	-0.0136398	-0.0456436	0.0381994	0.0258577	-0.026431	-0.0358457	-0.0318903	-0.0327701	0.044856	-0.0776193	-0.000576835	-0.0445512	-0.0389796	-0.0309932	-0.0316629	0.0153949	-0.00592628	-0.0147667	0.0476452	0.0404944	-0.0308107
CJ206	-0.00559873	0.211721	-0.0673305	0.0385102	-0.0174214	0.0181905	-0.0221097	0.0244707	0.00174964	0.0364547	-0.0399735	-0.0315824	-0.0219852	0.0130124	0.0194392	-0.0244263	-0.0469849	0.000225624	-0.0719593	0.0441766	-0.0732853	-0.0128968	0.121258	0.0230016	-0.00288724	0.11597	-0.0567551	-0.0563203	-0.00169027	-0.0184082	-0.0816985	0.0640776	-0.0343529	0.0477212	0.00403017	-0.0333132	-0.00850919	-0.0892264	0.0291391	-0.0271724	-0.0621413	-0.0115643	0.0472752	0.0548313	-0.0271668	-0.0507825	-0.0489146	-0.0753918	0.0871386	-0.102689	-0.0103604	-0.136498	-0.0390612	-0.0252818	0.0280815	-0.0506496	-0.117085	-0.00277424	-0.0454394	0.00658881
CJ185	0.00951034	0.223527	-0.0829267	0.045011	-0.0247315	0.0520812	-0.0046018	0.0444534	0.00770989	0.0446563	-0.0525571	-0.0628809	-0.04116	0.0176934	-0.00979679	-0.0232097	-0.0304196	0.0126164	-0.0453418	0.0413454	-0.067312	-0.0169026	0.106172	-0.00250942	0.0212501	0.0673594	-0.0326319	-0.0222746	0.00802663	0.00311078	-0.0274483	0.00932154	-0.0355518	0.0138714	0.0274103	0.0193071	-0.000227087	-0.0974999	0.0253813	0.00922745	-0.0213501	-0.0177862	0.0160021	-0.0105622	-0.0497763	-0.0613645	-0.06379	0.00682995	-0.00926981	-0.0125496	-0.0529954	-0.060091	-0.00155847	-0.0289176	0.0178251	-0.0530954	0.0111217	0.0715513	-0.0312854	-0.0422137
CJ138	-0.0199213	0.0220521	-0.0361761	0.0143075	-0.0628713	-0.102388	-0.00850168	-0.0246722	-0.114575	0.0251752	-0.0207242	0.0408997	0.264824	0.131269	0.187846	0.103493	0.240714	0.0879534	0.135635	0.138415	-0.152543	0.0217861	-0.054905	0.144807	0.0446007	-0.0450865	0.0240687	-0.000549713	0.00803768	0.0194083	0.00941229	-0.033655	0.000105966	0.0176334	0.013462	-0.0274591	0.0252692	0.00704792	0.00639916	0.0209706	0.0487915	-0.000247175	-0.00371738	-0.0186623	-0.0159387	-0.00937841	-0.014428	0.0130659	0.034725	-0.0222025	-0.00622877	0.00139429	0.0198899	-0.0110929	-0.0028294	0.0217623	-0.0199975	-0.0377926	-0.0228674	0.0359671
CJ114	0.0517123	0.0924654	0.265767	-0.0268722	0.0179415	-0.0410224	-0.0612186	-0.0350212	0.0469946	-0.156433	0.0457119	0.0378518	0.044374	-0.0884093	0.0343627	-0.0591836	-0.00954682	0.0255011	0.0301975	-0.00528607	0.0129215	0.0108074	-0.0316981	0.019274	0.0107969	-0.0288932	0.00843111	-0.0204992	0.0153724	-0.0934203	0.00896926	-0.0412536	-0.05038	-0.0551708	0.0399113	-0.01573	0.0205245	0.0244496	0.00452476	-0.105471	-0.0698809	-0.00879385	0.0365447	0.0156522	0.070249	0.0060115	0.00697487	-0.0378119	0.0489104	-0.0729752	0.029882	-0.0589248	0.000306705	0.0120923	0.0422347	-0.0753051	-0.0760203	-0.0129718	0.00388912	0.00684856
CJ115	0.0597353	0.0985847	0.22437	-0.0276303	0.0188749	-0.0188923	-0.0528483	-0.0234766	0.0562204	-0.120406	0.0292124	0.0208972	0.011424	-0.0473086	0.0124356	-0.0334334	-0.0111164	0.0131062	0.016515	0.0225441	-0.0267511	-0.00945869	0.0203262	-0.0178303	0.0202573	-0.0078845	0.0403235	-0.0178004	0.00192936	-0.0611029	-0.00865147	-0.0137503	-0.00618722	-0.0357275	0.0145943	-0.0164604	0.0275808	0.0621764	0.0406246	-0.0853693	-0.0753461	-0.0228431	0.0217334	-0.00524015	0.0631492	-0.00789797	-0.0396999	-0.0989444	0.126912	-0.0366068	0.0997379	-0.0104169	0.0686999	0.0588304	0.00652938	0.0548271	0.0469026	-0.0241112	0.0242976	0.056749
CJ025	0.0760133	-0.0745772	-0.0269189	0.227971	0.18426	-0.03512	-0.118151	-0.0367525	0.00675256	0.0265878	0.0314225	0.175801	-0.132006	0.088124	0.0519613	-0.0490162	-0.00555559	-0.00343537	0.0137096	0.0204947	-0.0480684	-0.00111814	0.0103186	-0.0110454	0.00537716	0.0165765	-0.0528395	0.00876268	0.00966191	-0.0122349	0.0356363	-0.0272641	0.0616051	-0.032397	-0.0577704	-0.0110531	0.0294502	0.0685316	0.0250153	-0.0113251	-0.0332047	0.0319117	-0.0115202	-0.0066075	-0.045379	0.0623816	-0.00407849	-0.03583	-0.0182629	0.0124643	-4.20206e-05	0.0249234	-0.0137286	-0.0241495	0.0538768	0.105445	0.0313039	0.0479557	0.0536087	0.00840698
CJ154	-0.10884	-0.0282752	0.00981604	-0.00235279	0.0134319	0.0413922	-0.02664	0.0306546	0.00770485	0.00610884	-0.0128036	-0.0106369	0.00388963	-0.0118216	0.0106542	-0.00254424	0.00851212	-0.0397948	-0.0327147	0.0036877	0.00865064	0.00823983	0.0223657	0.0287671	-0.082688	-0.0655996	0.00787733	-0.0365138	0.00484841	-0.000540037	0.0428668	0.0039923	0.014637	-0.00323116	-0.00303533	0.059073	-0.0266967	0.0253547	0.102021	0.0715059	0.0370375	-0.060356	0.098744	0.018549	0.0601402	-0.0854884	0.0900019	0.00847389	0.00344573	-0.239785	-0.166965	0.0912041	0.00732129	0.130124	-0.207724	0.227322	-0.0594381	0.131222	-0.10708	-0.255848
CJ162	0.097557	-0.0645625	-0.0591242	-0.128748	0.0973175	-0.00558832	0.0596524	0.188966	0.0253207	-0.0216151	0.275904	-0.0696685	-0.0211764	-0.00130567	0.110551	-0.000909707	0.0964616	-0.0645684	0.0963107	-0.0760013	0.0872139	-0.0143351	0.130092	0.0351156	-0.00708905	0.207524	-0.0654394	-0.178967	0.0451528	0.185087	0.108075	-0.0105198	0.00429606	-0.0295828	0.0671941	-0.0233659	0.00661255	0.0110312	0.00886426	-0.00294122	-0.0121162	-0.0340305	0.059321	-0.0533582	-0.0202489	-0.0618746	0.0233996	-0.0315096	0.0045321	-0.00333753	0.1011	0.00522751	0.0194373	0.0607126	-0.0198883	0.0250878	0.0783348	0.0657464	-0.0213911	-0.00108289
CJ144	0.0659671	-0.00552403	-0.0624327	0.0493998	-0.117695	0.04795	0.0317798	0.0548707	0.00870683	-0.0224728	-0.0646085	0.0589074	0.0414328	-0.0185072	-0.0459098	0.053917	0.0421905	-0.0357823	0.054687	-0.047082	0.0427545	0.0110112	-0.00527357	0.0212902	-0.0724269	0.139614	-0.271813	0.0159821	0.0552847	-0.217144	0.0798091	-0.0161095	-0.0527065	0.0492494	0.106673	0.084887	0.0219986	0.332656	-0.0750716	0.0558549	0.0949508	-0.0409675	0.0552515	-0.0524469	0.164622	0.18463	0.0865157	0.0672473	-0.106434	0.0425512	-0.0515099	0.182555	0.0577624	-0.0308514	-0.012609	-0.101053	-0.0985923	-0.0262161	0.161754	-0.0766275
CJ157	0.0684994	-0.0534491	-0.00956047	-0.000156073	-0.0139602	-0.0615327	-0.00162312	0.115522	-0.0462374	0.0563859	0.0476202	0.0280263	0.0481506	-0.0784777	-0.0940571	0.113519	0.0206459	-0.00433825	-0.0587036	-0.0452401	0.0388544	-0.00974297	-0.0216701	0.0149674	-0.0599277	0.0849465	-0.282216	-0.0862461	0.0449787	-0.0509591	-0.0321337	0.110987	-0.159966	0.0908718	0.128214	-0.0243332	-0.124364	0.0759742	-0.111968	0.113799	0.225133	-0.153644	0.115683	-0.23835	-0.150793	0.176051	0.146923	-0.151947	0.107496	-0.0942501	0.173145	-0.0855618	0.0333984	0.0654653	0.0934092	0.00824023	0.00547406	-0.0147523	-0.144304	0.206844
CJ176	0.0931744	-0.0255455	0.057074	0.0666255	-0.0368307	-0.0880251	-0.0453846	0.11889	-0.08719	0.151831	0.0654188	0.0390315	-0.0316332	0.0787111	-0.145988	0.158888	0.0551236	-0.0814565	0.00864387	-0.0972786	0.122649	0.0105146	-0.158061	0.00552726	-0.107526	-0.0318332	-0.100922	-0.0210268	0.00439046	-0.137159	-0.0799315	0.102254	-0.0646308	0.116305	0.00716318	-0.0746716	-0.0517827	-0.160946	-0.040214	0.0583906	0.0127732	0.12555	-0.105684	0.145694	0.00356385	-0.0753258	-0.0572526	-0.032388	0.0726359	-0.113241	-0.105441	-0.155802	0.0170538	-0.0508185	0.0528581	-0.0410689	-0.138629	0.0182014	0.145938	0.00711978
CJ177	0.05222	-0.0704336	-0.0758802	0.190078	0.172984	0.0218752	-0.0748017	-0.0774013	0.0851887	-0.160698	-0.00710127	-0.0461264	0.0143321	0.0441703	-0.00983074	0.0399521	0.00491158	0.00629747	-0.00707498	0.0363875	-0.0404121	-0.0130833	0.0833519	-0.038341	0.0553245	-0.027317	0.129674	-0.0395297	-0.0186844	0.0888898	-0.00430012	0.0390794	-0.0967398	0.113636	0.206369	0.118174	-0.0913203	-0.00792328	-0.00800029	0.0865947	0.0546129	0.00188188	0.0293559	0.0817329	-0.010857	-0.0716553	0.0374187	0.00165791	0.0157106	-0.0522111	-0.00269082	-0.0376903	-0.00644392	-0.0213756	-0.0753863	-0.133727	-0.112514	-0.00921363	0.0919036	0.00593886
CJ234	0.102066	-0.0742457	0.00969076	0.0440733	0.035048	0.0338396	0.00915419	-0.102003	-0.0583944	0.142667	-0.0928407	-0.278996	0.0841756	-0.157523	0.135271	-0.152193	-0.0221432	0.0697449	0.0300933	-0.0509948	0.0700515	-0.00308608	-0.0309808	-0.043491	-0.00753441	-0.0251874	0.0677174	-0.14115	-0.0112371	-0.0102671	0.0245473	0.0346161	-0.0490981	0.0620042	0.105994	0.0195868	-0.0687677	0.157842	-0.0561687	0.0338794	-0.0516112	0.115326	-0.0877041	-0.0248956	-0.0393007	0.141134	-0.0455506	-0.0965505	-0.0316742	-0.0568629	-0.0442027	-0.127763	-0.000988271	-0.0319586	0.121302	0.169347	0.0254939	0.0701767	0.0231119	-0.000120068
CJ301	0.0659291	-0.0723668	-0.0716181	0.226756	0.195926	-0.000984267	-0.103839	-0.0816589	0.0605553	-0.0773849	0.0389927	0.103257	-0.0875577	0.0663669	0.0595244	-0.0519983	-0.00104034	0.00102605	0.0289917	0.0497769	-0.0787877	-0.0187788	0.0974628	-0.0422878	0.0632092	-0.00889002	0.110437	-0.0498668	-0.0147167	0.0562249	0.0223851	-0.00126527	-0.0274779	0.0306824	0.120889	0.0947024	-0.0450222	0.113998	-0.0369594	0.0627872	0.00701129	0.00739474	-0.00578941	-0.0102367	0.000801579	0.0301818	0.0120169	-0.0283276	0.00379825	-0.0106378	-0.0200019	-0.0253837	0.022492	-0.0476524	0.0486495	-0.0253459	-0.0304301	0.0149645	0.0308157	0.0262921
CJ182	0.0779259	-0.0489949	0.0220558	0.10845	0.0350684	-0.0904307	-0.0639598	0.0557926	-0.0828011	0.189735	0.0221886	0.0763522	-0.0657566	0.0360397	-0.0342781	0.0046226	0.00615835	0.00389411	-0.00808869	-0.0574084	0.0484386	0.0297083	-0.163588	0.0586864	-0.103064	0.0186123	-0.253447	0.0553311	0.0421392	-0.12643	-0.0611568	0.0100593	-0.0625856	-0.0610963	-0.152292	-0.128704	0.0801621	-0.263747	0.079424	-0.0918037	0.0266553	-0.0334918	0.0209837	0.0294604	-0.0268282	-0.0466109	0.0140358	0.0591969	0.0221257	-0.0303994	-0.00588774	0.0162715	-0.0257388	0.0542743	-0.103736	-0.0262397	-0.0363733	-0.0828301	-0.0317861	-0.0139616
CJ159	0.0624462	-0.0704575	-0.0931618	-0.0975351	-0.187465	-0.0456806	-0.257921	-0.116851	0.0178387	-0.0040561	-0.025344	0.00575136	-0.0132273	-0.0211394	-0.0599901	0.0196005	-0.0129299	-0.00307693	-0.0150284	-0.0265222	0.0186062	-0.00941191	0.0620847	0.00329719	-0.0430663	0.131291	0.010196	-0.189153	0.00813826	0.211636	0.061558	-0.0439822	0.113958	-0.159204	-0.17193	-0.213301	0.128783	0.14259	-0.110028	0.0225294	0.0757845	0.0415187	-0.107953	0.159605	-0.00167384	-0.00100572	0.0772682	-0.0424282	0.0549969	-0.017047	-0.149586	0.00638591	0.0370992	-0.0987694	0.0475215	-0.0666006	-0.136364	-0.0305675	0.00577403	0.0145612
CJ262	0.117055	-0.0168264	0.241899	-0.065827	0.0466435	0.03325	0.00774676	0.045491	-0.055673	0.0476103	-0.0925809	-0.00947595	-0.00400345	0.112552	-0.0989421	0.120353	0.00411042	-0.00293337	-0.0655785	0.0432395	-0.0507417	-0.00210148	0.0534259	-0.0202297	-0.00369558	0.0451591	0.0241903	-0.02831	-0.0235103	0.0266544	-0.0359139	0.0649381	0.00981709	0.057339	-0.0219205	0.0196364	0.0329084	0.0467882	-0.0366383	0.0809407	0.0684659	0.0762716	-0.127044	0.0272663	-0.0249054	0.0520347	-0.0341699	0.0325218	-0.0712281	0.080338	-0.0898219	0.101043	0.0229016	-0.0175691	-0.0158674	0.110487	0.0713023	0.0450149	0.0133914	-0.0250191
CJ022	0.102311	-0.0424229	-0.0293125	-0.0367289	-0.0207117	0.151736	0.120097	0.0837293	0.0264181	-0.0626165	-0.306954	0.259029	-0.0120821	-0.0242356	0.00423742	-0.0700761	0.0324391	0.0490026	0.0908146	-0.0553781	0.088683	-0.00029547	-0.0738717	-0.0104261	-0.0174476	-0.0236044	0.0376275	-0.0841852	0.00631704	0.116817	0.0443845	0.00124923	0.0330126	0.0219196	0.0143029	-0.0534285	-0.034882	-0.0950001	0.00987591	0.0187454	-0.0233149	0.0207589	0.00105598	0.0257355	-0.0733045	-0.0768231	0.0125106	-0.0317893	0.0624778	-0.0226825	0.0904838	-0.0782845	0.00238588	0.040995	-0.00815875	0.0215787	0.0459911	0.0319653	0.0316937	0.0232885
CJ230	0.0958473	-0.0598674	-0.0896477	-0.157653	-0.150492	-0.0140189	-0.293114	-0.127404	0.0125267	-0.0139922	0.0066941	-0.0145855	-0.0407269	0.0243562	-0.0257506	0.0266019	0.00296046	-0.00907943	-0.0184255	0.000351888	-0.00283451	-0.0036999	0.0286421	-0.00218179	-0.00350476	0.0407633	-0.0161973	-0.0179197	0.00766328	0.0212119	0.0332054	0.00721101	0.0298767	0.0172934	-0.00594335	-0.00750707	-0.000249948	0.0184762	0.0112111	0.0166465	-0.0285146	0.0111957	0.0108563	-0.0195797	-0.00444446	-0.0147543	0.0032406	-0.0157094	-0.0119537	-0.00754132	0.0520305	0.00697936	0.00591554	0.0212232	-0.0111593	0.0189356	0.0254417	0.00566659	0.0161495	0.000358938
CJ131	0.0678806	-0.0588164	-0.0959371	0.14436	0.14331	0.0289608	0.00993608	-0.028369	0.0954668	-0.225209	-0.0588258	-0.171396	0.139325	0.0235618	-0.125047	0.108414	-0.00687451	0.0275783	-0.0129361	-0.00370531	0.00894482	0.0147213	-0.0622236	0.00806115	-0.0259185	-0.0136344	-0.0266654	0.0283828	0.00096947	0.0522843	-0.0168331	0.00687667	-0.00387815	-0.00770006	-0.0233521	-0.0543657	0.0378536	-0.0545226	0.00905634	-0.02125	0.0173346	-0.0246745	0.00591611	0.034473	0.022006	-0.0592697	0.00882343	-0.00554208	0.0211127	-0.0155951	0.0435433	0.012469	0.00960185	-0.00621562	-0.0389824	-0.0220682	-0.00593294	-0.0317637	-0.0423718	-0.00967628
CJ023	0.080701	-0.0697739	-0.0893593	0.159641	0.140734	0.0401849	-0.00259432	-0.0655736	0.0942475	-0.236276	-0.0545655	-0.202016	0.146761	0.0210705	-0.0966755	0.085377	-0.00761566	0.0131908	-0.0298464	-0.0145736	0.0179347	0.00950662	-0.0359714	0.00493751	-0.0246753	-0.0048675	-0.056134	-0.00486961	0.00843537	0.00432906	0.0318359	0.00375316	0.00382927	0.0280527	0.0501475	-0.000936445	-0.0375797	-0.0518572	0.00626612	0.0310418	-0.0176201	0.0280155	0.0113472	0.0303551	-0.0315744	-0.0520941	-0.0181602	-0.000660088	0.0383713	-0.0156562	0.00908827	-0.0571861	-0.00529503	0.0305317	-0.0311823	-0.0360544	0.00213936	0.0259205	0.0670711	-0.0178776
CJ250	-0.130027	-0.0321302	0.0243008	-0.00379609	0.0184158	0.0790515	-0.0403132	0.024349	0.0147475	0.0128251	-0.00245434	-0.00764121	-0.00180248	-0.00967635	-0.0160015	-0.0187015	0.0306481	-0.0333901	0.00874898	0.00438156	-0.00375362	-0.0021218	0.0784057	0.0413011	-0.0690167	-0.122517	-0.044637	-0.0067379	0.0267858	0.0589096	0.119053	-0.0203488	-0.197587	0.062497	-0.129293	0.0969687	0.135654	-0.0394483	-0.227342	-0.0656316	-0.011948	0.124741	0.0307331	0.0152003	-0.0698389	0.0347128	-0.10061	-0.0459311	-0.00296613	0.153179	0.235511	0.0103721	-0.0378708	-0.0945517	-0.0771198	0.0425615	-0.214406	0.0672341	-0.024871	-0.108183
CJ216	-0.12807	-0.0312482	0.0231418	-0.00289596	0.0181735	0.0735562	-0.0411272	0.0227645	0.0159317	0.0124957	-0.00353196	-0.0079116	-0.00141254	-0.0119753	-0.00858264	-0.0163109	0.0260446	-0.045909	-0.000571487	0.00454266	-0.00725447	0.000511901	0.0790126	0.0444536	-0.0871369	-0.141403	-0.0535175	-0.0170198	0.0308418	0.0641863	0.118987	-0.0123183	-0.185357	0.0578564	-0.120125	0.137804	0.167792	-0.0517879	-0.218594	-0.0703054	-0.0040179	0.11032	0.0369374	0.00959288	-0.0578	0.0431449	-0.0900439	-0.0479596	0.00142749	0.105891	0.21262	0.0106272	-0.0372098	-0.108036	-0.103872	0.0698636	-0.209929	0.057112	-0.0066777	-0.112783
CJ181	-0.12943	-0.0342614	0.024281	-0.000588003	0.0162164	0.0849805	-0.0520081	0.0419509	0.0192551	0.00909095	-0.0148402	-0.0156906	-3.21008e-05	-0.0145773	0.0127509	-0.0237885	0.054134	-0.122982	-0.0435065	0.0194738	-0.0471532	0.00235343	-0.224977	-0.0705493	0.180596	0.194518	0.0357917	0.0177228	-0.000975923	0.00344827	0.0281379	-0.0240118	-0.0409844	-0.00195044	-0.0418839	0.0341025	0.0125127	-0.0227512	-0.00461544	0.00428019	0.00310655	-0.0151155	-0.00801644	0.0266379	0.00250316	0.0486868	-0.00243525	-0.0223652	0.0175891	-0.0311241	-0.0187558	-0.0147316	0.00681554	0.0207538	-0.0102187	0.0184491	0.0177716	-0.0215092	0.0884705	0.0552031
CJ184	-0.122846	-0.0341433	0.015998	-0.00557507	0.0147838	0.071107	-0.0350908	0.0249954	0.00468388	0.0197236	0.00357493	-0.012674	0.012683	-0.00644859	-0.049006	-0.0243724	0.0219158	0.0038225	0.0567163	-0.00523607	-0.00155134	-0.00226327	0.0712758	0.0275933	0.02387	-0.026723	-0.0211287	0.0624157	-0.0225321	-0.00254783	-0.0381303	-0.00567861	-0.0565352	0.00134079	-0.03383	-0.156091	-0.143208	0.102515	0.0805929	0.0876119	-0.0733137	0.068403	0.0589835	-0.0287043	0.0228588	-0.0598034	0.0540223	0.0333288	-0.000546498	-0.0772759	-0.098834	0.0402628	0.0110328	0.167089	-0.018197	0.0233966	-0.0319376	0.0759956	-0.0538974	-0.0218317
CJ286	-0.123892	-0.0326064	0.0222182	-0.0046209	0.0111146	0.0717593	-0.0375505	0.031155	0.0082621	0.0148084	-0.011548	-0.00756193	0.00931823	-0.00582929	-0.00816058	-0.0151026	0.032816	-0.0331532	0.00162041	0.00411062	-0.0139966	-0.00318788	0.00204301	0.000335291	0.0252855	-0.0164286	-0.008983	0.0197913	0.0014633	0.0126714	0.0227024	-0.00320411	-0.100061	0.00197197	-0.0684773	-0.0647774	-0.0444619	0.0436521	0.0816566	-0.00916123	-0.00355528	-0.0408671	-0.0817707	0.0564189	-0.052371	-0.0118668	-0.0537837	-0.0252882	-0.0223455	0.0557276	0.0468538	-0.0499684	-0.0205154	-0.0232604	0.030991	-0.156681	0.0341556	0.0340326	-0.029967	0.180993
CJ237	-0.126085	-0.0299679	0.0188944	-0.000406445	0.0119451	0.0560832	-0.0351803	0.0271839	0.0163979	0.00709834	-0.0124458	-0.00655421	-0.0051505	-0.00369734	0.0178867	-0.0018907	0.0194912	-0.0634196	-0.025179	0.00577283	-0.0114478	0.00569477	-0.0319953	-0.00156899	-0.0125784	-0.00657561	0.00630589	-0.00875065	0.00961355	0.0214577	0.0442314	-0.00144801	-0.0429001	0.0118305	-0.0204209	0.0478395	0.0428138	0.0265143	0.162761	-0.0113478	0.0845074	-0.160519	-0.183261	0.049063	-0.0228764	0.000952501	-0.0578297	0.00116723	-0.0465652	0.00914419	0.0343651	-0.00777496	0.033719	0.118055	0.0888068	-0.0502871	0.0240197	0.0716312	0.0381131	0.0272844
CJ188	-0.114829	-0.0348871	0.0167575	-0.00323936	0.0147224	0.0666526	-0.0315563	0.0239673	0.00284137	0.0177798	0.0113932	-0.00611705	0.0120431	-0.00267155	-0.0628561	-0.0356182	0.0156743	0.022508	0.0629026	-0.000679265	-0.0109621	-0.00484332	0.10859	0.0392542	0.020902	-0.037287	-0.0131192	0.0675851	-0.022801	-0.0168034	-0.0520985	-0.000669754	-0.111613	-0.012914	-0.0483348	-0.23661	-0.213829	0.10054	0.0325673	0.0646455	-0.0605379	0.0696207	0.0659502	-0.0476744	0.00787525	-0.0870865	0.00301384	0.0278398	0.00614744	-0.0235302	0.0291493	0.0602129	-0.00372971	-0.0480086	-0.00781256	0.0366892	-0.0685015	0.0173115	-0.0604606	-0.143618
CJ139	-0.107498	-0.0328129	0.0216275	-0.00675221	0.0182313	0.0602798	-0.0385329	0.040899	0.0142066	0.0137202	-0.00668984	-0.0136993	0.0121015	-0.0273315	-0.0295389	-0.0451273	0.0429893	-0.0530338	-0.00103781	0.00270439	-0.0377434	-0.00692338	0.0625224	0.0349947	-0.136164	-0.127139	-0.0558591	-0.0875853	-0.0337761	-0.0626745	-0.173907	0.0632948	0.382411	-0.0950866	0.282687	-0.0204851	0.0447269	-0.0611033	-0.0223759	-0.0296378	0.0380698	0.0287334	-0.00106368	0.000147148	0.0360463	0.00485024	-0.00507344	0.0155107	-0.00113027	0.00857538	0.022081	0.0125554	-0.0242888	0.0336332	-0.000721076	0.0136649	-0.0688288	0.0409727	-0.08418	0.00357731
CJ143	-0.100396	-0.0370078	0.0155992	-0.00260628	0.0113756	0.0545496	-0.0417175	0.0344463	0.00387036	0.011128	-0.00356786	-0.00949372	0.0210693	-0.0178371	-0.0250444	-0.046656	0.0430763	-0.0489948	-0.00715153	5.09725e-05	-0.0276153	-0.00778118	0.0471326	0.0262197	-0.102672	-0.0830606	-0.055692	-0.100214	-0.0455246	-0.0856116	-0.191628	0.0865529	0.441311	-0.130908	0.316969	-0.0210606	0.0478969	-0.0746194	-0.0281626	-0.0413668	0.0559371	0.0331286	-0.0411271	-0.0157653	0.0311095	0.0457109	0.0311065	0.0270467	0.00672838	0.0593996	0.057812	0.0141502	-0.00900653	0.0257598	0.0483399	0.0175258	-0.109445	0.0619052	-0.0368696	-0.00411679
CJ166	0.0152808	0.200236	-0.0719618	-0.0340227	0.06618	0.0702028	0.0152955	-0.0301566	-0.00743283	0.0231727	-0.045219	-0.0300935	-0.0358647	0.00673297	0.00568686	-0.017709	-0.0687801	0.00191534	-0.0914075	0.0540375	-0.0646349	-0.012816	0.0384017	-0.0381348	0.0101265	-0.0360757	0.0825424	-0.00100168	-0.0381637	-0.060207	-0.119522	0.0797307	0.0165147	0.0378294	-0.111719	-0.0866247	0.0454926	0.0802236	-0.117147	0.0307515	0.130286	-0.0336134	-0.085583	0.126017	-0.0238689	0.00989448	0.0843126	-0.12755	0.184445	-0.0349833	0.130674	0.0725951	0.163832	0.0675301	-0.0579278	0.0255291	0.0740238	0.0567492	-0.0484112	0.03756
CJ127	0.0817495	-0.0675928	0.000968565	0.0562342	0.0317601	-0.00659464	-0.01908	-0.0732669	-0.0641972	0.22568	-0.100641	-0.204122	0.0190571	-0.148116	0.134371	-0.164595	-0.0491344	0.0898056	0.040021	-0.058191	0.0792098	0.0118763	-0.118574	-0.0152224	-0.0435526	-0.037219	-0.00957294	-0.0387542	-0.00049678	0.00159124	-0.021593	-0.0182275	-0.0902379	-0.0354587	0.0406596	-0.0463774	0.0454182	0.0650461	-0.0133531	-0.0440618	-0.00543465	0.000455471	-0.0506712	-0.0419689	0.0133901	0.113317	0.00819294	-0.0556301	-0.0259815	-0.0543275	-0.0308142	-0.0473101	-0.0227983	-0.0432312	0.0350694	0.103406	-0.00332657	-0.0270736	-0.0357964	-0.0343895
CJ125	0.108722	-0.0291715	-0.0722282	-0.194494	0.131278	0.0534025	0.0304248	0.102219	0.0250592	-0.0254839	0.15735	-0.0648066	-0.04134	0.0915127	0.0991193	-0.0348381	0.0629281	-0.0191705	0.0693273	-0.029838	0.0270679	9.79577e-05	0.0264073	0.00344628	-0.00115103	0.043486	-0.0576496	0.00296501	0.0198645	-0.0709244	0.0165958	0.0134415	-0.0494336	0.0675614	0.076557	0.0510986	-0.0198685	0.0129871	0.0177481	0.00584583	0.0315796	-0.00497013	-0.0105578	0.00249418	-0.0112286	0.00711201	0.0413916	-0.0350996	0.0131677	0.0213284	0.0232339	0.0395522	-0.00752088	-0.0175919	0.0167362	-0.0349229	0.0282709	-0.0357209	-0.143229	0.0329251
CJ124	0.0948137	-0.0204052	-0.0681047	-0.198886	0.156832	0.048263	0.0580974	0.130483	0.0232694	-0.0285257	0.174197	-0.0695602	-0.0420806	0.0460687	0.12167	-0.04391	0.0303375	-0.0213213	0.0433437	-0.0149273	0.0204744	-0.0037742	0.0188078	0.00791862	-0.00660263	0.0244378	0.00521785	0.00177077	0.00464962	0.048989	0.0323611	-0.0348229	0.0342159	-0.00325377	-0.0208315	-0.00967463	0.00482483	0.00532188	0.00648132	0.0339765	-0.0325593	0.0551694	-0.0532666	0.0239024	0.0304826	-0.0308745	-0.0149547	0.00166054	0.0229828	-0.00587965	-0.0743593	-0.0194993	0.007316	-0.0217013	0.00128474	-0.0143554	-0.0601539	-0.0597635	0.00943769	0.00360385
CJ005	-0.0811301	-0.0340092	0.0110988	-0.0126358	-0.0034424	0.0398608	-0.0258799	0.0322136	0.00285154	-0.00623119	0.00054362	-0.00112781	0.0195631	-0.0119317	-0.00927491	-0.0309102	0.0171627	-0.0565015	-0.0369757	-0.00906881	-0.0165738	0.000801165	0.0516131	0.048293	-0.0814043	-0.137618	-0.0519931	-0.0451259	0.00966002	0.0352858	-0.00134323	0.0191003	-0.0381426	0.0303043	-0.092417	0.100402	0.141409	-0.066185	-0.199526	0.0519429	-0.0742102	0.114112	0.130249	-0.170478	0.111708	-0.0835071	0.0624407	0.0704687	0.024831	0.0106013	-0.133981	-0.0162283	0.119599	0.0796249	0.351738	-0.0449792	0.136563	-0.114791	0.134849	-0.0172522
CJ141	0.084447	-0.074256	-0.102623	-0.158869	-0.143127	-0.0318083	-0.281608	-0.124609	0.042429	-0.00607214	-0.0311819	0.00500643	-0.0406778	-0.00224298	-0.0296293	0.00306473	-0.00842854	0.0129394	-0.00274618	0.0045784	-0.00707848	-0.00328172	0.0165037	-0.00354501	-0.0033538	0.0270382	-0.00394906	-0.0094903	0.0030604	0.0508434	0.0334483	0.00550743	-0.0145727	-0.02561	0.0327262	-0.00881865	-0.0181527	-0.046515	0.0234389	-0.0126711	-0.000326176	-0.0175074	0.0367581	-0.0576117	0.0202218	-0.00130793	-0.0107872	0.000859046	-0.00422606	0.0333961	0.0071404	-0.00643885	-0.0293306	0.0424047	-0.0182077	-0.0143996	0.0109534	-0.0393644	-0.0318123	0.0148339
CJ101	0.108448	-0.0285256	0.250583	-0.0701242	0.0256531	0.0250271	0.00584839	0.0321351	-0.0517863	0.0175744	-0.0428062	-0.0133446	-0.0130534	0.139015	-0.100907	0.110082	0.00239793	-0.0225178	-0.0606604	0.0301507	-0.0372683	-0.0175714	0.071127	-0.0329651	-0.0120255	0.0349539	0.0935236	-0.0952924	-0.025261	0.078925	-0.0198645	0.046455	-0.052129	0.022507	0.0328313	0.00472096	-0.0463534	0.0161672	-0.0371003	0.0654717	0.0366774	0.0093687	-0.0354174	-0.0711147	-0.0465678	0.100207	0.0279789	0.0664267	-0.0948964	0.0410202	-0.0207861	0.0149486	-0.0377477	0.0227697	-0.0456424	0.0346662	0.0641757	-0.0396572	-0.0601869	-0.0489033
CJ189	-0.127148	-0.0303092	0.0200016	-0.00500054	0.0136259	0.0686589	-0.0343395	0.0198408	0.0022029	0.0118533	0.000854902	-0.00111747	0.00711578	-0.00582353	-0.0229709	-0.0165386	0.023369	-0.0121029	0.0253847	0.00110056	-0.00759188	-0.00616855	0.0430474	-0.000534232	0.00383223	-0.0329998	-0.0162441	0.0229942	-0.0137633	0.000450326	-0.0210676	-0.019587	-0.0494836	0.0156014	-0.0465365	-0.099637	-0.0860891	0.0704997	0.0363481	0.0555209	-0.0896771	0.0592651	0.0691124	-0.0199161	0.02054	-0.0316145	0.0414339	-0.0210007	-0.0206584	-0.0285781	-0.0938497	-0.00170925	-0.070642	-0.0649567	-0.103535	-0.0804905	0.158738	-0.0673144	-0.0454216	0.0983589
CJ004	0.0914318	-0.0477898	-0.0857392	0.0679691	0.069315	0.042289	0.0547163	-0.0184481	0.0542704	-0.195709	-0.06704	-0.238492	0.198157	-0.0152623	-0.155342	0.106937	-0.0116361	0.0332715	-0.0250587	-0.044316	0.0564481	0.028962	-0.13157	0.0319758	-0.0807798	0.0215612	-0.164298	0.0302962	0.0177715	-0.041274	-0.012768	-0.0229646	0.073417	-0.100013	-0.205378	-0.138759	0.101956	-0.0562147	0.0185825	-0.0953893	-0.049773	-0.00121488	-0.0431621	-0.0694258	0.00295936	0.0333157	-0.0311245	0.00361587	0.00226309	0.0446812	0.0136084	0.0319152	0.00733173	0.0302133	0.0476716	0.118762	0.121277	0.00416196	-0.099635	0.0036744
CJ122	0.0905865	-0.0431806	-0.0608617	0.0505113	-0.114294	0.150763	0.120204	0.0348645	0.0232297	-0.0509462	-0.193821	0.227937	0.0116483	-0.0945433	0.0122471	-0.00747645	0.0858027	-0.0424747	0.127778	-0.0604836	0.105973	-0.00728829	0.056927	0.0188641	-0.00184814	0.108786	-0.00820489	-0.112805	0.0243233	-0.112701	0.0322468	0.0248096	0.000514175	0.107107	0.0369267	0.0737039	0.0239635	0.0569223	0.0550037	0.0103695	-0.0879829	0.0543894	-0.0611888	0.0974746	0.0605992	-0.154752	-0.0595221	-0.0519458	0.0916571	0.0767607	0.0543377	0.0866544	0.0494895	0.0024201	-0.0502427	0.031059	0.12803	-0.0281272	-0.0801163	-0.030684
CJ198	-0.104681	-0.0388767	0.0101026	-0.0033771	0.0173912	0.0710228	-0.0292046	0.0282911	-0.0078958	0.0194396	0.0211952	-0.00608941	0.0247606	-0.000621087	-0.0935181	-0.0560021	0.0304134	0.060521	0.107375	-0.00874786	-0.00860254	-0.010745	0.137249	0.0310824	0.0424655	-0.0566219	-0.0343294	0.0787901	-0.0442606	-0.0311925	-0.0861007	0.0225232	-0.0875303	-0.0351225	-0.0564036	-0.325832	-0.303585	0.168806	0.0585984	0.0747033	-0.124484	0.103491	0.0842378	-0.0445101	0.00893189	-0.0408794	-0.00792838	0.0243884	-0.00231849	0.0439911	0.0596022	0.0154969	-0.0844185	-0.0709172	-0.0731231	0.0244928	-0.0139972	-0.0670088	0.0245635	-0.140542
CJ130	0.0884166	-0.0161855	0.0324503	-0.105236	0.0643883	0.0618471	0.0627506	0.107536	0.0189599	-0.0161208	-0.275152	0.159215	-0.0194552	0.0522303	-0.0195598	-0.0638784	-0.0393491	0.110637	-0.0142704	-0.00634716	0.0062796	0.00524523	-0.12067	-0.0345492	0.00656976	-0.121994	-0.00376897	0.0382355	-0.0132836	0.250687	0.00465584	-0.0220562	0.000962879	-0.0896181	0.0171897	-0.0807005	-0.0514977	-0.111886	-0.0378229	0.00391777	0.061007	-0.0484577	0.0617959	-0.0909351	-0.124593	0.0787746	0.0564906	0.0309305	-0.0626918	-0.138379	-0.00988589	-0.156948	-0.0731578	-0.00508705	0.0620328	-0.00451528	-0.105495	0.064787	0.109002	0.0317144
CJ212	-0.114883	-0.038081	0.0178884	-0.00249321	0.00416969	0.0635607	-0.0395213	0.026919	0.00881452	0.0152954	-0.00336766	-0.0134135	0.0212741	-0.0158557	-0.0052573	-0.028529	0.0400563	-0.0465589	-0.00305088	0.00173856	-0.0200166	-0.00351846	0.0264593	0.0180889	-0.0543156	-0.0684739	-0.0323801	-0.0136227	-0.0114274	-0.0189588	-0.00426687	0.0110466	0.0176363	-0.0203302	0.0188828	0.0142338	0.0246074	0.0143946	-0.0486229	-0.0724989	-0.0165832	0.0277584	-0.00367138	0.0201082	-0.100926	0.0415938	-0.0388638	-0.041311	-0.0330764	0.172013	0.115638	0.000563114	-0.0892865	-0.237491	-0.0713459	-0.152293	0.154569	-0.0434136	-0.0744771	0.123017
CJ102	-0.0216865	0.169975	0.0536181	0.0261376	-0.0182939	-0.0611132	-0.0412603	-0.0340173	0.0783325	-0.127461	0.103641	0.0445208	0.0173229	-0.145344	0.0846334	-0.112089	-0.0116376	0.023053	0.072777	-0.0650572	0.0792324	0.00842945	-0.0933733	-0.00647641	-0.00934029	-0.0553894	-0.0612037	0.0648634	-0.00102207	0.0696114	-0.00393717	0.0207447	0.0778994	0.0684736	-0.060719	0.0201625	-0.0505693	-0.0500167	-0.0569966	0.185854	0.163844	0.056384	-0.081831	0.0214783	-0.12688	-0.0210386	0.0518094	0.0590127	-0.0411724	0.0689947	-0.0221032	0.0587741	0.012904	-0.00783041	-0.0586831	0.0414742	0.0883663	0.0194483	0.00666734	0.00641658
CJ006	-0.133371	-0.0321581	0.0277198	-0.00145299	0.0190853	0.093851	-0.0635335	0.0528816	0.0188054	0.00895675	-0.0226033	-0.0244503	-0.000815943	-0.023086	0.0156383	-0.0318029	0.0785351	-0.153856	-0.0599382	0.0286874	-0.0693641	0.00312998	-0.27629	-0.0925898	0.218945	0.238692	0.0408587	0.0179411	-0.0125107	-0.00098592	-0.0188917	-0.00792755	0.000236633	-0.0199864	-0.000203341	0.0167312	0.0177062	-0.027646	-0.0953901	-0.000329559	-0.0252606	0.0639769	0.0609901	-0.0186936	0.00155841	0.016131	0.0145825	-0.00683243	0.0170164	-0.0366917	0.00495249	0.014091	-0.000600078	-0.0194468	-0.0391085	0.037775	-0.00624587	-0.025331	0.0143318	-0.0178811
CJ007	-0.134156	-0.0348232	0.0243919	0.000803589	0.0206395	0.0957269	-0.0592373	0.0512928	0.0246433	0.00989417	-0.0239933	-0.0233644	-0.000516462	-0.0225725	0.0196835	-0.0330915	0.0727176	-0.165121	-0.0630101	0.0337708	-0.0743243	0.00621386	-0.275988	-0.0875549	0.215494	0.229527	0.0328418	0.00505016	-0.0155027	-0.0125625	-0.041052	-0.00345555	0.0223843	-0.0262621	0.0299601	0.00319677	0.00156488	-0.0266794	-0.0827198	0.00221336	-0.0288782	0.0655407	0.0678235	-0.0166692	0.0142806	0.00638722	0.0187238	0.0127685	0.00668043	-0.0200433	-0.00286478	0.0150329	0.00702004	-0.0121121	-0.0230801	0.0202226	-0.00125157	0.00200698	0.0181991	-0.0321144
CJ218	-0.132928	-0.0298359	0.0226562	-0.000782849	0.0204689	0.086666	-0.0559048	0.0463259	0.0173281	0.00758715	-0.0254158	-0.020706	-0.00174242	-0.0253278	0.0183595	-0.0277369	0.07443	-0.141728	-0.0630868	0.0288117	-0.0641899	0.00284347	-0.205331	-0.0706817	0.157718	0.169106	0.0157314	-0.00500313	-0.0216189	-0.00654886	-0.0686484	0.0214242	0.061148	-0.0335348	0.0636604	-0.00433065	0.0152293	-0.0286181	-0.117303	-0.00574513	-0.0359998	0.0976635	0.0959434	-0.0405638	0.0221687	-0.0290451	0.0407164	0.0180163	-0.00287142	-0.0220297	0.00730044	0.0324534	-0.00134961	-0.0520363	-0.0422023	0.0258191	-0.01893	0.00200553	-0.0698695	-0.076164
CJ026	0.0813444	-0.0600198	-0.0175954	0.218462	0.168516	-0.0419057	-0.111205	-0.0200759	-0.00962327	0.0817403	0.0623755	0.180051	-0.154085	0.0556933	0.048635	-0.0679785	-0.0184432	-0.00731257	-0.00668608	0.0317585	-0.0607794	-0.00742828	0.00341047	-0.00710587	0.0166585	-0.0380934	-0.0455683	0.0737411	0.00231678	0.00514561	0.0113658	-0.0250499	0.0442354	-0.0417263	-0.0639253	-0.0204378	0.0204163	0.030971	-0.0209221	-0.0152896	0.0138435	-0.00805306	-0.0198807	-0.0240154	0.0245596	0.00116787	0.0105863	0.019515	0.0126784	0.00205095	-0.00252113	0.02751	0.0302737	0.024665	0.018073	0.0314123	0.0556955	-0.0566929	-0.135159	-0.0126758
CJ228	-0.123056	-0.0300412	0.0153673	0.000692929	0.0132529	0.0560174	-0.0389036	0.0316008	0.0148349	0.0115536	-0.0118356	-0.00352403	-0.00103142	-0.00969041	-0.000780071	-0.0107048	0.0226139	-0.0471534	-0.0267519	0.00320961	0.00119818	-0.00182913	0.0442195	0.0346372	-0.0987496	-0.0923625	-0.0200902	-0.0476223	0.00845741	0.0114459	0.0352094	-0.00585023	0.0500219	-0.00181469	0.0347518	0.0833012	0.0522207	-0.00972672	0.174826	0.0174716	0.0260109	-0.174595	-0.0630445	0.0531733	0.0449141	0.0993648	0.0204701	-0.0561823	-0.00125459	-0.145464	-0.0675537	-0.0126027	-0.0183609	-0.0775947	-0.248619	0.143179	0.0366173	-0.0609378	0.10976	-0.0830538
CJ002	0.107067	-0.0141111	-0.0699795	-0.212641	0.140853	0.0667024	0.0600778	0.127053	0.0152939	-0.0346176	0.134705	-0.0627682	-0.0252778	0.0418795	0.0993335	-0.0464019	0.030421	-0.00328522	0.0600039	-0.0141432	0.00760091	-0.00319395	0.011121	0.000662645	-0.0256015	0.02703	0.0146232	-0.0120276	-0.000634064	-0.00743527	0.0156583	-0.0200827	0.01765	-0.012226	-0.0433974	-0.0386554	0.046813	0.00197571	-0.0234975	0.00294573	0.023319	0.0197269	-0.0455994	0.0333747	0.0140586	0.00793406	0.0305073	0.00062791	-0.0261109	0.00880885	0.0210807	0.0645376	0.0400924	0.00940751	-0.0101599	0.0258648	0.0144166	-0.0557312	0.0171847	-0.0154362
CJ028	0.0835689	-0.0622389	-0.106934	-0.145318	-0.153578	-0.0136378	-0.28373	-0.129043	0.0405205	-0.0118798	-0.0415902	0.0110783	-0.0516243	0.00503495	-0.0344516	0.0247552	-0.0113704	-0.000526767	-0.0108533	-0.00314758	0.0118359	-0.000921787	-0.00490186	-0.00183932	-0.0051179	0.00636327	-0.014119	-0.00747888	0.00527583	0.0351586	-0.00502131	0.0118394	0.0152345	0.0109359	-0.0233736	-0.0132658	0.00658913	-0.0141655	0.0152987	0.0073688	0.0254848	0.00399088	-0.00291402	0.0139044	-0.00190287	-0.0555507	0.00262019	0.0166216	0.0154249	-0.00629638	0.0149189	0.0175579	0.0223011	0.00341911	-0.0207732	-0.00398267	-0.0082957	0.0274284	0.0173062	-0.00276222
CJ140	0.0191762	0.188193	-0.0828242	0.0340923	-0.0286857	0.0459115	-0.0059313	0.0638144	-0.00395327	0.0535057	-0.0917715	-0.0448171	-0.0217642	0.0586619	-0.0289478	0.0071502	-0.0265704	0.021471	-0.0371577	0.0297415	-0.0329522	-0.0141408	0.070886	-0.0253929	0.017472	0.0360541	0.00166457	-0.0103728	-0.00189677	0.00332369	-0.00625094	0.00533516	-0.011473	0.0104312	-0.019239	0.016458	-0.00194058	0.0176982	-0.0027304	-0.0266786	0.0152234	0.011685	-0.0256577	-0.00715579	-0.0125232	0.113755	0.0414372	0.00843628	-0.0698995	0.0078062	-0.0376442	0.0512611	-0.017494	-0.0509117	0.0228166	0.0388852	0.0323177	0.0767414	-0.100756	0.00678144
CJ252	-0.116605	-0.0366926	0.0188586	-0.0091325	0.0116376	0.0623067	-0.0364855	0.0310088	0.00726204	0.0168028	-0.00466868	-0.0141485	0.0113576	-0.0130238	-0.0165607	-0.029311	0.0361431	-0.046764	0.00174062	-0.00479985	-0.0157737	-0.00528695	0.0422178	0.00670617	-0.044052	-0.0857423	-0.0460741	-0.0267046	-0.011706	0.00919373	-0.049436	0.0485886	0.0697778	-0.0467277	0.0563117	-0.0246232	0.0227951	0.0118275	-0.00557104	-0.0338601	-0.045071	-0.0144526	-0.0111354	-0.00941139	-0.0877608	0.0152892	-0.0500731	-0.0782086	-0.0514619	0.105724	0.0307094	-0.0343951	-0.0843518	-0.265041	-0.0760563	-0.160978	0.173675	-0.048868	-0.0943729	0.229913
CJ253	-0.12804	-0.0296448	0.0222184	0.000417868	0.0152419	0.0694865	-0.0391057	0.0309122	0.0117116	0.0117599	-0.0134193	-0.0102146	0.00148933	-0.00620417	-0.0028598	-0.0144877	0.0266258	-0.0433581	-0.000544778	0.0090027	-0.0134961	-0.00126609	0.08502	0.0434805	-0.0857582	-0.126009	-0.0318626	-0.0125154	0.0114168	0.0456807	0.0354239	-0.0104904	-0.0745927	0.0532381	-0.063918	0.0728534	0.115137	-0.0211397	-0.04639	0.0344831	-0.0402144	0.0377157	0.0868075	-0.0279107	0.0798007	-0.059918	0.0950122	0.0315831	0.037729	-0.0947098	-0.124316	0.0176491	0.0498366	0.204528	0.0877894	0.0265683	0.0649005	0.0418879	-0.0129971	0.00549134
CJ256	-0.126773	-0.0308822	0.0185311	-0.00135933	0.0115505	0.0599149	-0.0373355	0.034187	0.0171611	0.00620003	-0.016786	-0.0112619	8.76691e-05	-0.0075798	0.0265177	-0.00686006	0.0167872	-0.0761777	-0.0383535	0.0109205	-0.0171182	-0.000668244	-0.0330153	-0.00195804	-0.0128541	-0.00801415	-0.00864069	-0.00480792	0.0147294	0.0248657	0.0613957	-0.00527839	-0.0734164	0.0397403	-0.054994	0.0276068	0.0266275	0.0318507	0.122895	-0.0169543	0.0926944	-0.168353	-0.225967	0.0200184	-0.0454278	-0.0206676	-0.0991186	0.0379038	-0.0311669	0.151457	0.117803	-0.0539081	0.04687	0.1459	0.242838	-0.0500323	-0.105747	0.0230066	-0.00612328	-0.0695666
CJ116	0.0641935	-0.0597754	-0.0906427	0.146443	0.126076	0.0520897	-0.00339315	-0.0647808	0.0793328	-0.242368	-0.0410342	-0.182385	0.144948	0.0311625	-0.123692	0.12857	0.00458934	0.00203969	-0.0231	-0.00593557	0.0225318	0.0076351	-0.015454	-0.00546245	-0.0178232	0.022544	-0.0231483	0.00225003	0.00295056	-0.000749067	-0.00330958	-0.00728337	-0.0117897	0.00646911	-0.0218923	-0.0126953	0.0263852	-0.049211	0.0296794	-0.0146171	-0.0144722	0.00842517	-0.0279837	-0.00789482	0.00553103	0.00480015	0.00485464	0.0381992	-0.0355471	0.00791099	-0.0305906	0.0294683	-0.03322	0.00427589	-0.0279081	-0.0176416	-0.0167673	-0.0146891	0.0038055	-0.00577126
CJ142	0.0883903	-0.0598029	-0.113083	-0.171595	-0.145838	-0.000915994	-0.285524	-0.126003	0.0457273	-0.0452509	-0.045368	0.0114912	-0.0392691	0.0128567	-0.0364014	0.0154002	-0.0167678	0.0139842	-0.0133209	0.0111129	-0.00517794	-0.00346364	-0.00103558	-0.0229861	-0.00909949	0.00196463	0.00683684	0.0332959	-0.003021	0.0273877	0.0242629	-0.0182045	0.0224216	0.0120292	0.00774542	0.0117702	0.0111198	-0.00711687	0.0100446	-0.00387804	-0.0242002	0.0236281	-0.0313714	0.0175505	-0.0154424	-0.00985925	-0.00864389	-0.010563	-0.00124586	-0.00878113	-0.000442621	-0.0136365	-0.00787925	-0.0125547	0.00112307	0.0111168	0.00420252	0.0123019	-0.0233221	-0.0141694
CJ259	-0.0817753	-0.0354244	0.00751526	0.00604333	-0.000181501	0.0382285	-0.03064	0.0358405	-0.00134885	-0.00127574	0.0039082	-0.00373293	0.021239	0.00472094	-0.0310448	-0.0395158	0.0276563	-0.0209313	0.00115779	-0.00542354	-0.0130217	-0.00916943	0.0255304	0.0171756	-0.0103431	-0.0363584	-0.0247428	-0.024123	-0.0180589	-0.0546739	-0.0100809	0.00931166	0.0825051	-0.0535184	0.0135762	-0.0877659	-0.134787	0.040399	0.0643953	-0.00983538	-0.0153902	-0.0319163	-0.112941	-0.0686041	-0.0399064	0.00194581	-0.053014	0.0737685	-0.0142974	0.193774	0.0399078	-0.108319	-0.0678996	0.0126686	0.198982	-0.0806844	0.0199148	-0.244108	0.179041	-0.0929319
CJ123	0.0872105	-0.0577567	-0.0537008	0.0670847	-0.170204	0.177436	0.155725	-0.0364972	0.0273947	-0.0657859	-0.062065	0.134647	-0.00291756	-0.0420952	0.0294341	0.0151805	0.0615627	-0.0808567	0.0524112	-0.0234614	0.0320124	-0.00362721	0.0796356	0.0279379	-0.00521201	0.0956037	-0.0965195	0.0463209	0.0277518	-0.196187	0.0156731	-0.0125249	0.0128238	0.0531578	-0.0068529	0.0785559	0.0385954	0.122285	-0.0187775	0.00848748	0.0135731	0.0330378	-0.0675501	0.0792335	0.0665998	-0.000278909	-0.0212255	-0.00513363	-0.00219732	0.0152291	-0.0945389	0.0853761	0.0482762	-0.0384483	-0.0143252	-0.0485157	-0.0216855	-0.0466503	-0.0631079	-0.0249596
CJ279	-0.125345	-0.0303082	0.0196034	0.0011767	0.00884447	0.054274	-0.0375704	0.0353378	0.020473	0.00312192	-0.00939562	-0.00951751	-6.55679e-05	8.64301e-05	0.024457	-0.012491	0.00996137	-0.048471	-0.0450614	0.00808204	-0.00988113	0.00195699	-0.0256403	0.0137323	-0.0157398	-0.00547462	-0.00105446	-0.0313295	0.0106571	0.00460546	0.0373187	-0.00483497	-5.26064e-05	0.0177225	-0.00161309	0.0107848	-0.0295257	0.0474474	0.191578	0.0181379	0.0982604	-0.196559	-0.149473	0.0281482	0.00326447	-0.060473	-0.0191831	0.0438046	-0.00655936	0.00440801	0.00191064	-0.00676465	-0.00187482	0.139135	0.17929	0.0538294	-0.0861317	0.0717912	-0.0665102	-0.149248
CJ121	0.117732	-0.0294401	0.289271	-0.0545813	0.0480441	0.0146544	0.00468401	0.0273913	-0.074082	0.0577894	-0.0757154	-0.042449	0.00124633	0.114038	-0.0806128	0.102255	-0.00286744	0.00361453	-0.0936644	0.0475004	-0.0621739	-0.014073	0.070997	-0.0115663	0.0107375	0.0377807	0.00298777	0.0129395	-0.00423905	0.109168	0.0504462	0.015115	0.0653688	0.0395752	-0.0126611	0.00863823	-0.0237381	-0.0167155	0.0193098	0.0707754	0.0159811	0.00146993	0.0237635	0.0188293	-0.00267122	-0.0685155	0.0343329	0.0430661	-0.00875214	0.108538	0.0220836	0.115289	0.0115204	0.00796793	-0.0359538	-0.040844	0.0328605	-0.018775	-0.00610126	0.0103563
CJ282	-0.0962186	-0.0360239	0.0166473	-0.0121875	0.00588922	0.0325478	-0.0251358	0.0206865	0.00526642	0.014227	-0.00194415	-0.00950699	0.0103586	-0.00944831	0.00517817	-0.00771953	0.0146989	-0.0470818	-0.0156621	-0.00734177	-0.00463552	0.00805774	0.0171846	0.0394519	-0.0224588	-0.0459855	-0.0246554	-0.00507908	-0.0113355	0.00670397	0.0072257	0.000356163	-0.0701083	0.0544934	-0.125507	0.0398658	0.0499131	0.00672432	0.0535639	0.0470667	-0.119589	-0.0375997	0.00975907	0.0550968	0.00524188	-0.0060134	0.134063	-0.0265279	-0.0274085	-0.1254	-0.268632	-0.0747951	-0.0409112	0.0786455	0.0211415	-0.174818	0.20324	0.0437417	-0.0324008	0.383761
CJ027	0.0132362	0.224245	-0.0663956	0.0773241	-0.0839846	0.00141677	-0.0410918	0.0980238	0.0169674	0.0388969	0.0121243	-0.0661141	-0.0364525	0.0291286	-0.046211	0.0482746	0.0212136	-0.013635	0.0539081	-0.036042	0.0708279	0.00275613	-0.075494	-0.0632367	0.0204504	-0.116147	0.101585	0.0289084	-0.00171784	0.0831114	0.0781609	-0.0664212	0.0475475	-0.0130707	0.0383128	0.0274837	0.00281718	0.153783	-0.00492457	-0.0282934	-0.027823	-0.0310428	0.0217877	-0.0305513	0.0414498	0.0421282	0.0550318	-0.020142	-0.0248043	0.0398592	0.031424	0.0985041	0.0285327	0.0240456	-0.0176865	-0.0177772	0.0587668	-0.0175863	-0.0800089	-0.0226129
CJ000	0.108261	-0.075412	0.0229421	0.0358834	-0.142112	0.111381	0.0912503	-0.0694222	0.020368	-0.00977104	0.147363	-0.080836	-0.040534	0.0170779	0.043239	0.0210011	0.0255683	-0.107873	-0.000726312	-0.00506968	-0.00724236	-0.00810813	0.0867176	0.0237864	0.0515908	-0.0281901	0.162582	0.0717037	-0.0446748	0.0381712	-0.105599	0.0152829	0.0628799	-0.0583726	-0.157595	0.00764642	0.00104809	-0.0884372	0.0332549	-0.0474935	0.0295817	-0.0840835	0.0902982	-0.207563	-0.161201	0.135457	0.00192452	7.63197e-05	-0.0653827	-0.0526863	0.0899719	-0.12108	-0.11045	0.040212	0.0451434	0.224996	0.0461483	-0.0110388	0.00643167	-0.00219878
CJ128	0.0693983	-0.0669078	0.0222304	0.0714873	0.0360493	0.00970928	-2.45449e-05	-0.0950139	-0.0936149	0.258357	-0.116369	-0.222573	0.032885	-0.161511	0.172366	-0.174205	-0.0372303	0.0943054	0.0259419	-0.0439539	0.0667541	0.00867839	-0.0751033	-0.0106323	-0.0271971	-0.0069271	-0.0797314	-0.0122758	0.02709	-0.00477381	0.0460878	-0.0272497	-0.00148102	0.0164695	0.0349625	-0.00530027	-0.00348148	0.0540643	0.0151942	-0.0417469	-0.0484813	0.0095083	-0.00476378	0.0332122	0.0145919	-0.0189834	-0.00165401	-0.0482342	0.0145594	-0.0142848	0.0122796	0.0119624	0.0137732	-9.98742e-05	0.00654604	0.038461	0.0103232	0.00138546	0.000534367	-0.0107627
CJ289	-0.102283	-0.0309098	0.0133712	-0.00764562	0.00518677	0.0364736	-0.0229869	0.0384381	0.00577062	0.00366009	-0.00388866	-0.0037803	0.0073939	-0.00860538	-0.00562038	-0.00491993	-0.00025076	-0.0455634	-0.0272932	0.0028656	-0.0126561	-0.00134825	0.0346052	0.0388084	-0.0799097	-0.0557115	-0.00613681	-0.0434696	0.0115029	0.0322084	0.0763582	-0.0219332	-0.00739609	-0.0010156	-0.0273767	0.080577	0.0510723	-0.029458	0.180079	0.0468074	0.0588231	-0.202158	-0.0777749	0.030045	0.0134816	0.142301	-0.0289982	-0.155935	0.0249807	-0.186631	-0.0652406	-0.0269358	-0.0387883	-0.240377	-0.339895	0.116793	0.0447857	-0.184774	0.193459	0.028176
CJ290	0.104352	-0.0512296	-0.0754344	-0.16514	-0.0589377	0.00990191	-0.203718	-0.081757	0.0452195	-0.0118527	-0.0292866	-0.010997	-0.0441851	0.0212478	0.00911838	0.00931115	0.00817897	0.0113448	0.00706437	0.0279419	-0.0151972	0.00608549	-0.0452295	-0.00635329	0.0485371	-0.0993944	-0.0255382	0.167562	0.000958247	-0.164254	-0.037293	0.0572033	-0.113877	0.171554	0.188263	0.208407	-0.125912	-0.136168	0.126283	-0.0154132	-0.0688107	-0.0360327	0.117671	-0.164973	0.0198254	-0.0364295	-0.0763879	0.0388924	-0.0393471	0.0270251	0.169706	0.00862784	-0.0204857	0.100177	-0.0534951	0.0833387	0.159254	0.0444539	-0.00541399	-0.00243944
CJ293	-0.130357	-0.0329819	0.0237831	-0.00223986	0.0127275	0.074111	-0.044729	0.0313847	0.0203627	0.0210487	-0.0105927	-0.0129314	0.00982004	-0.0152072	-0.0098154	-0.0272612	0.0315901	-0.0652604	-0.00492373	0.00609752	-0.0185962	-0.00576696	0.0932561	0.0447409	-0.112123	-0.16201	-0.0502779	-0.0427911	0.00201592	0.0426615	-0.0043375	-1.1779e-05	-0.0128452	0.0297509	-0.0115312	0.105197	0.163234	-0.0701418	-0.115785	0.0371094	-0.0636369	0.093577	0.120869	-0.0571919	0.0978756	-0.0234054	0.0733524	0.0129846	0.0442835	-0.0814129	-0.0982195	0.00740196	0.0384632	0.108993	0.0680451	0.0231582	0.100484	-0.00220621	0.0505276	0.0233682
CJ294	0.0996857	0.0259608	-0.0843808	-0.237747	0.151096	0.101151	0.0318884	0.036444	0.0224402	-0.0276163	-0.0262035	-0.0297839	-0.0389973	0.0945863	0.0728013	-0.0630762	-0.0323952	0.0412097	-0.000673232	0.0459993	-0.0607184	0.0138192	-0.108886	-0.0233127	-0.00626705	-0.166623	0.0279518	0.183409	-0.0309117	-0.211786	-0.10116	-0.00679987	-0.0150476	0.0421926	-0.0571734	0.0161364	0.0127353	-0.0211843	-0.00320764	0.00235281	0.021464	0.0454173	-0.0874316	0.0843299	0.0293647	0.0524573	-0.0169691	0.0175021	0.00964616	0.00296481	-0.124809	0.0187303	-0.00845464	-0.0745771	0.0301843	-0.0327415	-0.106771	-0.096211	-0.0116207	0.0172398
CJ295	0.079537	-0.0543167	-0.00477105	0.0740205	0.00243749	-0.00995013	0.00213214	-0.0285072	-0.030573	0.106404	0.000244571	-0.00608346	-0.0173104	-0.0759153	0.0570318	-0.0704587	0.0119243	-0.00445732	0.0372139	-0.0346066	0.048669	0.00416805	-0.00931025	0.0352233	0.00846912	-0.022055	0.124219	-0.157095	-0.0293396	-0.0205649	-0.14517	0.0791291	-0.164722	-0.150162	-0.0415501	-0.125843	0.076571	-0.206499	-0.0209107	-0.0169463	0.169733	-0.218441	0.130568	-0.0821011	0.0697186	0.00393645	0.145495	0.18612	-0.0209029	0.0516767	0.0951135	0.161798	0.00357933	0.104977	-0.216073	-0.322939	-0.0828396	-0.0758752	0.0339856	-0.0975583
CJ299	-0.128164	-0.0319662	0.0223448	-0.00238452	0.0126158	0.072706	-0.044629	0.0342668	0.014378	0.00873	-0.0098894	-0.0107899	-0.00202902	-0.0121832	0.00318968	-0.0158379	0.0260168	-0.0712209	-0.013278	-0.00106995	-0.00792832	-0.0013351	-0.0146463	0.00783485	-0.00326529	-0.0141131	-0.00596544	0.00801626	-0.0066376	0.00792395	0.0556934	0.00465895	-0.0636162	0.0218448	-0.0414077	-0.0412253	-0.0473086	0.0756674	0.172008	-0.00791652	0.0576474	-0.144181	-0.197347	0.0336968	-0.00243888	0.00750973	-0.1071	0.0350122	-0.0462984	0.0432329	0.0807079	-0.0377635	0.0216581	0.132332	0.101189	-0.0540033	-0.0322949	-0.00971373	0.0682685	0.00392278
CJ302	0.0923633	-0.0677065	-0.0378422	0.0735931	-0.0584456	0.0865007	0.0687339	-0.036914	0.00435954	0.0197391	-0.0643394	0.0142158	0.000435001	-0.100228	0.0453095	-0.037564	0.0369721	-0.0343662	0.0959184	-0.0439643	0.0693208	0.00431111	0.040073	0.0263166	0.0372556	0.00511438	0.206285	-0.114289	-0.0421378	-0.070217	-0.12788	0.0497483	-0.0184459	-0.0726045	-0.216967	-0.0217811	0.0790511	-0.107012	0.130342	-0.0856778	-0.0200122	-0.00737788	0.0254618	-0.0837539	0.0820268	-0.0131021	-0.0948324	0.035012	-0.0389723	0.138214	-0.0948549	0.185142	-0.0378351	-0.0433306	0.0670607	0.103215	0.0218558	-0.0814594	-0.158615	0.0653768
CJ303	-0.12572	-0.0356326	0.0228566	-0.0105659	0.0172359	0.102585	-0.0227792	-0.0192697	-0.0348287	0.049433	0.0591679	-0.00732879	0.00279623	0.0158977	-0.208722	-0.0522486	0.0355336	0.173549	0.234851	-0.031991	0.0365828	-0.00884634	0.129444	-0.00347772	0.132931	0.0385449	-0.00561742	0.137043	-0.0242158	-0.0134308	-0.0488656	-0.0579962	-0.0299541	-0.0565032	0.058247	-0.0740942	0.00193608	-0.0796334	-0.0773711	0.00162308	0.0450219	0.0163753	-0.0343986	0.0495171	0.0108756	0.0799853	0.0159106	-0.0495717	0.0501395	-0.0318736	0.000517309	-0.0190188	0.0964627	0.0477525	-0.00425478	0.0491065	0.000210098	0.0202887	0.0500277	0.0398375
CJ137	-0.00585017	0.0253579	-0.0327884	0.0182336	-0.063706	-0.12087	-0.0125938	-0.0127641	-0.114561	0.0198674	-0.0127736	0.0457628	0.266481	0.141606	0.17581	0.0948182	0.24116	0.0908075	0.135686	0.125452	-0.153608	0.018846	-0.059526	0.130859	0.0577665	-0.055789	0.0176023	-0.0119991	0.00708837	0.0198014	-0.00181198	-0.0197347	0.0205513	0.00426576	-0.0034034	-0.0154283	0.0356194	-0.00600935	0.00262096	0.0244965	0.0390244	0.00793072	0.00360651	0.00350004	-0.00384577	0.0025755	-0.0141292	-0.01252	0.0178941	-0.0373619	0.0279007	-0.0058638	0.0300401	0.000350575	-0.0013685	0.012378	-0.00600351	-0.00618308	0.013328	-0.0103147
CJ167	-0.012819	0.010734	-0.0285071	0.016882	-0.0655255	-0.107153	-0.0132736	-0.0175468	-0.111004	0.0193952	-0.0122252	0.0491615	0.259685	0.133339	0.187205	0.086335	0.228919	0.0935987	0.13217	0.12772	-0.136585	0.0254169	-0.0536436	0.12316	0.0470004	-0.0503525	0.0326523	-0.0206786	0.0107259	0.0111088	0.0176916	-0.00774434	0.0172858	0.0303841	-0.00966434	-0.0287485	0.0183567	0.0156617	-0.00789373	0.0151777	0.020109	-0.00187542	-0.00205365	-0.00787056	0.0148629	0.00119439	-0.0382138	-0.0100226	0.0496094	0.0110033	-0.015899	-0.0223953	-0.00799265	-0.00225007	0.0120443	0.0428648	-0.0389792	-0.0180603	-0.0131495	0.0493428
CJ107	0.0642247	0.102998	0.0034032	0.0919607	-0.0933594	-0.00582858	-0.0170587	0.13349	0.0241203	0.0427966	0.0893931	-0.0575294	-0.0596809	0.0612515	-0.0669589	0.0949816	0.0719771	-0.0802899	0.106332	-0.0928037	0.143691	0.00730772	-0.131294	-0.0507014	0.0169527	-0.165674	0.14988	0.0583943	-0.0160772	0.1199	0.0407067	-0.0611172	0.0439997	0.000625294	0.0104673	0.0423907	-0.0110395	0.0527526	0.0557391	-0.057524	-0.0733015	-0.0338285	0.0376839	-0.0332747	0.0261281	-0.00351937	-0.00438732	-0.0376929	-0.00143701	0.0117189	-0.00484215	0.0187712	-0.000416005	-0.0530331	0.0123146	-0.00946981	0.00907417	0.0221531	-0.0612168	-0.00704609
CJ108	0.0728715	0.09133	-0.00751596	0.100108	-0.090929	-0.0152228	-0.0437866	0.125805	-0.0185839	0.084657	0.0880855	-0.0313387	-0.0613452	0.088824	-0.108244	0.133357	0.0813079	-0.0906003	0.0798009	-0.0927106	0.151923	0.0149416	-0.16866	-0.0606459	-0.0365517	-0.180833	0.125111	0.00913779	-0.0115413	0.00669072	0.0659917	-0.0319354	0.0229342	0.00683443	0.0563157	-0.00187954	-0.00703129	0.124513	0.0034273	0.0087291	-0.0749288	0.0252978	0.0268302	-0.00270018	0.0344852	0.0177808	0.0367042	0.00320357	-0.0613335	0.0199077	-0.0209681	-0.0236038	-0.0612297	-0.0438671	0.0411399	-0.0479995	-0.0612899	-0.00343768	-0.0115993	-0.0493381
CJ109	0.0614829	0.113936	0.00869826	0.0765347	-0.095234	-0.018237	-0.0417462	0.104776	0.0226038	0.0431265	0.0819255	-0.0465829	-0.062821	0.0344614	-0.0813532	0.0987022	0.0592135	-0.0796623	0.06446	-0.0946194	0.151695	0.00717735	-0.150271	-0.0664443	-0.00403958	-0.190292	0.16269	0.049816	-0.0363846	0.0344706	-0.035026	0.012912	0.0309177	0.0275095	0.020959	-0.0342868	0.0139557	0.0995394	-0.0626966	-0.0142875	-0.0138454	-0.0209891	-0.031276	0.0586774	0.0132408	-0.0509988	0.0145386	-0.106364	0.130445	-0.0653236	0.0573698	-0.0422578	0.0729657	0.0120576	-0.00644381	-0.0540092	-0.0366625	0.0187707	0.0253143	0.0108535
CJ110	0.0504602	0.0703799	0.247034	-0.0209313	-0.00179357	-0.0200454	-0.0417089	-0.0747132	0.0363675	-0.144456	0.0330239	0.0575464	0.0510806	-0.0754671	0.0391492	-0.0466022	0.0153506	0.00447914	0.0446968	-0.00872244	0.00843775	0.00170215	0.00831604	0.011063	-0.00062604	0.0324647	-0.0328859	-0.0611107	0.0162071	-0.0842047	0.00597532	-0.0258769	-0.0700387	-0.0471611	0.0366303	-0.02645	0.0567066	0.0216853	0.00296444	-0.0755229	-0.0448211	-0.033791	0.0286371	-0.0140153	0.0623683	0.01811	-0.0162526	-0.00348046	-0.0330143	-0.0728867	-0.0478031	-0.059758	-0.0335007	-0.0562701	0.0307101	-0.0345047	-0.0905969	-0.000912415	-0.00993026	-0.0130058
CJ111	0.0518433	0.0843961	0.248221	0.000424696	-0.00864808	-0.0285972	-0.0610887	-0.0377673	0.0521294	-0.128306	0.0564912	0.0435017	0.0135868	-0.062689	0.00908671	-0.0396773	-0.0108511	0.00941555	0.0212996	-0.00271542	0.00211436	0.00599201	0.0150666	0.0289284	0.0143446	0.0272449	-0.0127726	-0.0475071	0.0102347	-0.0868545	-0.0177904	0.00145246	-0.0490863	-0.0614666	-0.0293897	-0.0163945	0.0355471	-0.0271782	0.0476734	-0.112906	-0.0463521	0.00880331	0.00256518	0.0266131	0.00234541	0.0203327	0.00117573	-0.072057	0.0439018	-0.0960387	0.0296582	-0.0691507	-0.00678016	0.0106231	0.0339164	0.00838623	-0.0539735	0.0445367	-0.0148654	0.0112035
CJ112	0.0573902	0.101857	0.228054	-0.0349866	-0.00401045	-0.0281007	-0.06447	-0.0388431	0.0241099	-0.129519	0.0316737	0.0536388	0.0300981	-0.051168	0.0149068	-0.0370886	-0.00631735	0.0154243	0.0263411	-0.00247654	0.00190219	0.00507972	0.0080177	0.0101298	0.0121244	0.0129938	-0.0170485	-0.0456788	0.0156544	-0.100595	-0.00862732	-0.0427197	-0.061364	-0.0689066	0.019742	0.029916	0.0291381	0.046556	0.0472264	-0.07848	-0.0551839	-0.0413986	0.0492434	-0.0121149	0.0213066	0.0213403	-0.0109007	-0.0284515	-0.0082137	0.00402786	-0.0333633	0.00996468	-0.0311882	-0.00928387	0.00296921	-0.0262026	-0.0198585	-0.0474961	-0.0498444	-0.0308118
CJ001	0.0779617	-0.0457082	-0.0761155	-0.00416074	0.0180388	-0.0341635	-0.00455218	0.137039	-0.0482381	0.0491227	0.0815517	0.0757721	0.0532081	-0.415834	-0.0692771	0.133687	-0.0211076	0.0546977	-0.0748587	0.130743	-0.125253	0.000879197	0.0445619	-0.017168	0.0576841	-0.047253	0.0732527	0.0711029	-0.0225279	0.0107283	-0.00279264	-0.0266791	0.00136336	0.0271322	0.0524558	0.0235756	0.0105579	-0.0131733	0.0247638	-0.0331804	-0.0568809	0.0235699	-0.0165297	0.0481688	0.00715503	-0.0730815	-0.00149576	-0.0235031	0.00165509	0.0175542	0.0304422	0.00564528	0.00348921	0.00946131	-0.0137654	0.0141699	0.0366947	0.0177662	0.00965977	-0.0140432
CJ207	-0.0582453	-0.0382176	-0.010008	-0.000189848	-0.031981	-0.00509867	0.0432376	0.0250457	-0.0107535	-0.00845307	0.0860422	0.00703456	-0.00489762	0.05366	-0.0787593	-0.0524273	-0.0918464	0.285011	0.0203948	0.00608544	0.0133747	0.0159767	-0.0866459	-0.0299704	0.0577369	0.0562425	0.0915712	-0.0134483	-0.0394853	-0.0816039	0.271645	0.516915	0.145548	0.0303141	-0.0908513	0.128801	0.143794	0.0931159	-0.0103984	-0.0281761	-0.0296511	-0.0745347	0.0503851	-0.071864	-0.0495194	-0.0989904	-0.00323492	0.0217851	-0.0437486	-0.0443631	-0.0347328	-0.0319798	-0.110383	-0.000127738	0.0126849	-0.0422998	-0.0214858	-0.0692239	-0.0186737	-0.0505615
CJ300	-0.0547178	-0.035948	-0.0107835	0.0140098	-0.107611	0.0261558	0.0839851	0.00295197	0.0102875	-0.0336183	0.158979	0.0335006	-0.0374114	0.0905961	-0.000719621	-0.0494954	-0.153548	0.247681	-0.156166	0.0864825	-0.112877	0.0233655	-0.235516	-0.0307926	-0.0937266	-0.0706423	-0.05111	-0.216194	-0.00143698	0.104557	0.0493612	0.0520111	-0.178931	-0.0276115	0.196816	-0.109978	-0.0161466	-0.0434864	0.0485403	-0.0148885	-0.102714	0.0992122	-0.0905474	0.0472732	0.125764	-0.0456787	-0.034857	-0.0295268	0.0028934	0.127386	-0.0199855	0.146404	0.0353963	0.0121011	-0.0319762	0.0433908	0.111725	0.0337134	-0.00934318	0.00983879
CJ227	0.0998047	-0.0757925	-0.00376904	0.097227	-0.27091	0.202943	0.189486	-0.124271	0.0602733	-0.0592026	0.145206	-0.00155439	-0.0599405	0.0212209	0.0685389	0.0133315	0.0265848	-0.131475	-0.0190396	0.0259779	-0.0570034	-0.00935968	0.0893978	0.0196676	0.0318687	-0.0149922	-0.00934302	0.161085	-0.00263598	-0.0297445	-0.0340911	-0.0378364	0.0742078	-0.0299276	-0.0861767	0.00693776	-0.0108106	0.00263773	-0.0505602	0.000342402	0.0792936	-0.041349	0.0283572	-0.0575676	-0.0981726	0.0864571	0.0264658	-0.00347454	-0.00938191	-0.0982586	-0.00792257	-0.125279	-0.0229456	0.00577577	0.0296561	0.0232942	-0.0735121	-0.0234806	0.00510626	0.0172625
CJ261	-0.0581137	-0.0389853	0.0013807	-0.00399464	-0.0366521	-0.00378819	0.0343459	0.0110129	-0.0222626	0.00751849	0.0759729	0.0101748	-0.0103401	0.0568009	-0.0915289	-0.0353046	-0.116439	0.251438	0.0352699	0.0329923	-0.00864638	-0.000309912	-0.122198	-0.0828283	-0.0851667	0.101572	0.0188583	-0.201579	0.0235266	0.0208386	-0.300295	-0.336269	0.105831	0.246248	-0.146327	0.232013	0.07217	0.0913255	0.0659176	0.0531889	-0.00347521	-0.044218	0.0414467	-0.0595504	-0.00955489	-0.0810615	0.000266055	-0.00234658	-0.0444728	0.0084041	0.0605213	-0.0315307	-0.0853112	-0.0171133	0.00585366	-0.0585725	-0.0684473	-0.0198637	-0.0168692	-0.0241371
304.01	0.0232402	-0.0321984	0.00260648	-0.0693145	0.0129345	-0.164654	0.126779	-0.019069	0.280832	0.10102	-0.03748	-0.047205	-0.0696552	-0.00402574	-0.0637519	0.0104493	0.0510098	-0.0208833	0.0697579	0.0312677	-0.0564077	-0.00562993	-0.0197275	-0.0434918	0.0835122	-0.0491861	-0.100201	-0.0106942	0.0289061	0.0579769	-0.102293	0.0227538	-0.0826914	-0.138124	0.0287699	0.0353073	0.0786208	0.135371	-0.0722361	0.0953849	0.109064	-0.200375	0.0567037	-0.0534858	0.0898771	-0.132849	-0.24151	0.129165	0.224652	0.0649227	-0.1403	-0.118062	0.00797623	-0.140183	-0.0226342	0.0405351	0.0675681	0.125361	-0.0929643	-0.0335586
304.02	-0.0560245	-0.0205667	0.00354105	-0.0170015	-0.00446132	-0.181918	0.104727	-0.066021	0.229461	0.0788442	-0.0505381	0.000458283	-0.0275607	-0.0010208	-0.0163132	0.0195489	0.0299418	-0.0324575	0.0588903	0.0500401	-0.0687498	0.00640928	0.0154383	-0.0249204	-0.125393	0.0663672	0.0758665	-0.000379293	-0.0291348	-0.0524345	0.109109	-0.0147992	0.0663542	0.112032	-0.0291617	-0.0342386	-0.0901687	-0.130871	0.0519717	-0.0713999	-0.112232	0.1963	-0.0626378	0.0625391	-0.092447	0.142581	0.252256	-0.157235	-0.195769	-0.0572274	0.127915	0.0968715	-0.00180898	0.129942	0.0307224	-0.0475018	-0.0804768	-0.132405	0.0904703	0.0156248
304.06	-0.0436879	-0.0230411	0.00123294	-0.0431668	-0.00373445	-0.220026	0.138081	-0.0623719	0.32104	0.104072	-0.0535435	-0.0144439	-0.0607354	-0.00437523	-0.0528436	0.0172728	0.0492659	-0.0314036	0.0719719	0.0567803	-0.0796459	0.000618469	0.00345671	-0.0455038	-0.0240524	0.0143168	-0.0180399	-0.0167831	0.000240784	-0.00860765	-0.00388131	0.012316	0.0157257	0.0094957	-0.0278703	-0.0116933	-0.00936772	0.0140548	0.0179829	0.000472007	-0.0482937	0.028286	-0.0158363	0.020689	-0.0230124	0.0134028	-0.0040299	-0.00402342	-0.00351041	-0.00668928	-0.0037683	0.0099696	-0.00129727	0.00746159	0.00478684	0.0238364	-0.015	-0.00960913	0.0248234	0.0188807
304.13	-0.0222509	-0.0292958	0.00644405	-0.0475717	-0.00616291	-0.192877	0.137761	-0.0794109	0.316483	0.108713	-0.0492597	-0.0429175	-0.058318	-0.000195677	-0.0543212	0.0107311	0.0588493	-0.03657	0.104809	0.0449982	-0.0698664	0.00156866	0.00852192	-0.0302632	-0.0105501	0.020079	-0.0212763	-0.00533586	0.0036556	-0.0119723	-0.0134392	0.0223226	-0.0258869	-0.0100587	-0.00211639	0.0233946	0.0144825	-0.00582786	-0.0170347	-0.00593472	0.00546826	-0.00645667	-0.00920302	0.0124578	0.0272235	-0.00417772	0.0222741	0.0109529	0.00246038	0.0207819	0.00942383	-0.00348909	0.00723431	0.00816109	0.00726076	-0.0365011	-0.0147461	-0.00868182	0.00451737	-0.034825
304.14	-0.0180898	-0.0266089	0.00856215	-0.0458718	0.00822912	-0.209927	0.13519	-0.0626778	0.322293	0.127735	-0.0612999	-0.029133	-0.0641687	-0.0205298	-0.0610801	0.0145872	0.054313	-0.034233	0.105198	0.0572675	-0.0899662	0.000903579	-0.0118236	-0.057319	-0.0487773	0.00594552	0.0108488	0.00217485	-0.00738674	0.00954296	-0.00601523	0.0324642	-0.00978432	-0.0326945	-0.00629294	0.0211137	-0.0168317	0.00137306	0.0192035	0.00920027	-0.0171157	0.00322546	-0.00277502	-0.0144053	0.0166455	-0.0284347	-0.0277223	-0.0215761	0.0273051	0.015549	0.00533906	-0.00844266	-0.00226657	-0.00689428	-0.00329776	0.0372854	0.0281728	-0.00858961	-0.00496952	0.0100417
304.09	-0.0231964	-0.0256567	-0.0302917	-0.0121172	-0.0243599	-0.123402	0.0583172	0.0123889	0.0550026	0.0165106	-0.00743965	0.00889316	0.0303072	0.0527588	0.00690105	-0.0175897	-0.0496572	0.0265988	-0.216973	-0.101126	0.151743	-0.0134412	0.0690804	0.227486	0.430187	-0.151552	-0.12517	-0.0963416	0.00273389	0.0426217	-0.0959976	-0.00714634	0.0740423	0.011204	-0.0314048	0.0825536	-0.0071997	0.065507	0.0131012	-0.0818486	-0.077514	0.0788043	-0.0811171	0.0844677	-0.0201851	0.0374269	0.0416514	-0.0805514	-0.065121	0.00136541	0.00616344	0.0669168	0.0185436	0.0355949	-0.0294014	0.00188324	-0.0372014	-0.04232	0.0379188	0.0149798
304.1	0.0348742	-0.0307296	-0.030966	-0.0370555	-0.00887007	-0.0945845	0.0572025	0.0325434	0.0657708	0.0291823	-0.0164207	0.02516	0.0114203	0.0560314	-0.0165831	-0.00911885	-0.0296866	0.0312059	-0.195928	-0.105381	0.148945	-0.0129982	0.0526321	0.234127	0.438885	-0.163002	-0.184265	-0.0762421	0.00807482	0.0778938	-0.129846	0.0275262	-0.0105742	-0.0524601	-0.0215721	0.117821	-0.0263426	0.0326881	0.0490695	-0.0792515	-0.0377373	0.00312364	-0.00653509	0.0157254	-0.0312011	-0.0142396	0.0450238	-0.0503849	-0.0640229	-0.0111114	0.0197365	0.0933486	0.0165795	0.037841	-0.00975419	-0.000815891	-0.0615328	-0.0125699	0.0502535	0.0111
Izla	-0.0327044	-0.0244027	-0.0104116	-0.00230814	-0.00917416	-0.0543503	-0.00374211	0.0265272	-0.0111612	-0.0156401	-0.00988424	0.000884842	0.0287226	0.0288716	0.000773116	-0.000886148	-0.0275891	-0.00937418	-0.0328657	-0.0194197	0.0153795	-0.00215656	0.00691349	-0.00138501	-0.0701229	0.00199571	0.0581051	0.0112037	-0.0064517	-0.0400964	-0.0178061	-0.0529782	-0.0344013	-0.0189746	0.0496875	-0.0352686	-0.178396	0.0186713	-0.278039	-0.214689	0.300743	-0.211678	0.329289	0.401722	0.00744386	-0.230787	-0.191345	-0.216777	-0.355739	-0.00576075	-0.074364	0.0713329	-0.12703	0.0665416	0.145251	0.173922	0.126412	-0.145917	0.0356015	0.0274905
Tank	-0.0755096	0.0101579	-0.0169023	0.00654331	-0.0103159	-0.0714881	0.0317645	-0.0169111	-0.0270469	-0.0309789	-0.00140484	0.0471031	0.0482525	0.0144444	0.0944655	0.0138694	0.0168995	0.0184115	-0.132822	-0.0822309	0.119176	-0.0753036	0.12527	-0.36185	-0.0043044	0.00225782	-0.0255703	0.0533276	-0.0153765	0.0637128	-0.00432655	0.00462805	-0.0133232	0.0851918	0.0617742	-0.0943954	0.0586276	-0.0349972	0.0200839	0.0490584	-0.00239961	0.00956491	-0.00854161	-0.120389	0.0557614	-0.0765493	-0.122176	0.0827145	0.123534	-0.0255018	0.0108374	0.108001	0.0205019	-0.00960279	0.00544505	0.191467	-0.180069	-0.366677	0.107251	0.212122
Artemis	-0.0139567	-0.0380366	-0.0352262	-0.00596728	-0.0488254	-0.0901614	0.0177493	0.0205413	-0.0808471	-0.0146026	-0.00331562	0.0389083	0.158771	0.078579	0.110013	0.0258125	0.0962532	0.0594419	-0.0503141	-0.0206891	0.0383689	-0.0850829	0.0965668	-0.419601	0.0254135	-0.0589072	-0.0994352	0.0353614	-0.00870755	-0.0631443	-0.0928958	0.0427966	-0.0466197	-0.212933	-0.0838976	0.111702	0.020006	0.00945711	0.0343978	-0.0621738	-0.0603988	0.00581298	-0.00636187	0.124381	-0.0727098	0.0511901	0.104737	-0.0837977	-0.124246	0.0239516	0.00210682	-0.0809447	-0.0295466	0.0586701	-0.0265516	-0.173648	0.163528	0.31676	-0.0718653	-0.216748
Charles	-0.04693	-0.0073192	-0.0286242	0.00781793	-0.0342208	-0.0836783	0.0230265	-0.00983413	-0.0565599	-0.0197351	0.00186076	0.0581739	0.129569	0.0515457	0.134646	0.0330842	0.0815799	0.0329198	-0.105814	-0.0725066	0.109175	-0.106582	0.150773	-0.538068	0.00839757	-0.0264338	-0.0853209	0.0467009	-0.0174373	0.010346	-0.0798948	0.0311379	-0.0442343	-0.0945159	-0.00325956	0.0143506	0.0555693	-0.0106262	0.0252017	-0.00453718	-0.059321	0.015823	-0.0165139	-0.0163751	-0.0109845	-0.0259752	-0.00695936	0.00200306	-0.00211434	-0.014288	0.0178836	0.0285178	0.00478769	0.0335963	-0.0201768	0.0233128	-0.0367048	-0.063745	0.0464436	0.0167509
